{"learner":{"attributes":{"best_iteration":"216","best_score":"0.08568183792771523","scikit_learn":"{\"_estimator_type\": \"classifier\"}"},"feature_names":[],"feature_types":[],"gradient_booster":{"model":{"cats":{"enc":[],"feature_segments":[],"sorted_idx":[]},"gbtree_model_param":{"num_parallel_tree":"1","num_trees":"247"},"iteration_indptr":[0,1,2,3,4,5,6,7,8,9,10,11,12,13,14,15,16,17,18,19,20,21,22,23,24,25,26,27,28,29,30,31,32,33,34,35,36,37,38,39,40,41,42,43,44,45,46,47,48,49,50,51,52,53,54,55,56,57,58,59,60,61,62,63,64,65,66,67,68,69,70,71,72,73,74,75,76,77,78,79,80,81,82,83,84,85,86,87,88,89,90,91,92,93,94,95,96,97,98,99,100,101,102,103,104,105,106,107,108,109,110,111,112,113,114,115,116,117,118,119,120,121,122,123,124,125,126,127,128,129,130,131,132,133,134,135,136,137,138,139,140,141,142,143,144,145,146,147,148,149,150,151,152,153,154,155,156,157,158,159,160,161,162,163,164,165,166,167,168,169,170,171,172,173,174,175,176,177,178,179,180,181,182,183,184,185,186,187,188,189,190,191,192,193,194,195,196,197,198,199,200,201,202,203,204,205,206,207,208,209,210,211,212,213,214,215,216,217,218,219,220,221,222,223,224,225,226,227,228,229,230,231,232,233,234,235,236,237,238,239,240,241,242,243,244,245,246,247],"tree_info":[0,0,0,0,0,0,0,0,0,0,0,0,0,0,0,0,0,0,0,0,0,0,0,0,0,0,0,0,0,0,0,0,0,0,0,0,0,0,0,0,0,0,0,0,0,0,0,0,0,0,0,0,0,0,0,0,0,0,0,0,0,0,0,0,0,0,0,0,0,0,0,0,0,0,0,0,0,0,0,0,0,0,0,0,0,0,0,0,0,0,0,0,0,0,0,0,0,0,0,0,0,0,0,0,0,0,0,0,0,0,0,0,0,0,0,0,0,0,0,0,0,0,0,0,0,0,0,0,0,0,0,0,0,0,0,0,0,0,0,0,0,0,0,0,0,0,0,0,0,0,0,0,0,0,0,0,0,0,0,0,0,0,0,0,0,0,0,0,0,0,0,0,0,0,0,0,0,0,0,0,0,0,0,0,0,0,0,0,0,0,0,0,0,0,0,0,0,0,0,0,0,0,0,0,0,0,0,0,0,0,0,0,0,0,0,0,0,0,0,0,0,0,0,0,0,0,0,0,0,0,0,0,0,0,0,0,0,0,0,0,0,0,0,0,0,0,0],"trees":[{"base_weights":[1.0886036E-3,1.3320307E0,-8.8130665E-1,3.2427293E-1,1.7713987E0,-1.2237616E0,1.8988206E0,1.5902866E0,-7.215145E-1,1.1602709E0,1.9160686E0,3.5314974E-1,-1.3237158E0,9.4708043E-1,1.9709947E0,3.5378802E-1,1.1903449E0,3.479118E-1,-8.8095677E-1,7.870798E-1,1.6258068E0,1.5973454E0,1.9515765E0,-9.16985E-1,-1.6516777E0,3.2174096E-1,-3.327259E-1,1.6159468E0,3.5371915E-1,1.3168297E0,-6.405802E-1,-9.712159E-1,3.4181237E-1,3.5017323E-1,5.0975597E-1,1.719315E0,4.80899E-1,1.702274E0,8.538176E-1,1.870667E0,1.9837676E0,-7.220795E-1,-1.745859E0,-1.6615009E0,3.2443935E-1,3.3950564E-1,-2.2199738E-1,9.4726557E-1,1.7014425E0,-3.3432108E-1,3.1613326E-1,-6.92582E-1,-3.411448E-1,6.997528E-1,-5.263877E-1,1.468482E0,3.313017E-1,-1.351598E-1,3.1329253E-1,1.4761429E0,3.3444238E-1,1.1947958E0,-2.89164E-1,1.8916584E0,-2.2199738E-1,3.5337272E-1,1.7456973E0,-9.337315E-1,8.2467985E-1,-1.3455788E0,-3.5261694E-1,-1.5997493E0,-3.5415205E-1,1.0909945E-1,2.894617E-1,2.4371284E-1,3.1627485E-1,-2.9275373E-1,-7.533619E-2,1.5113068E-1,-2.512447E-2,1.6130961E-1,-2.1940401E-1,3.462738E-1,2.1005836E-1,2.6925522E-1,-1.0098655E-1,3.4337524E-1,2.333333E-1,2.831246E-1,7.8518085E-2,3.1747892E-1,3.5173288E-1,-2.89164E-1,3.49858E-1,-1.20679945E-1,-2.0341054E-1,4.2830803E-2,2.7785456E-1,-3.0199873E-1,3.0466387E-1,-2.9485852E-1,-1.9562555E-2],"categories":[],"categories_nodes":[],"categories_segments":[],"categories_sizes":[],"default_left":[0,0,0,0,0,0,0,0,0,0,0,0,0,0,0,0,0,0,0,0,0,0,0,0,0,0,0,0,0,0,0,0,0,0,0,0,0,0,0,0,0,0,0,0,0,0,0,0,0,0,0,0,0,0,0,0,0,0,0,0,0,0,0,0,0,0,0,0,0,0,0,0,0,0,0,0,0,0,0,0,0,0,0,0,0,0,0,0,0,0,0,0,0,0,0,0,0,0,0,0,0,0,0],"id":0,"left_children":[1,3,5,7,9,11,13,15,17,19,21,-1,23,25,27,-1,29,-1,31,33,35,37,39,41,43,-1,-1,45,-1,47,49,51,-1,-1,53,55,57,59,61,63,65,67,69,71,-1,-1,-1,73,75,-1,-1,77,-1,79,81,83,-1,85,-1,87,-1,89,-1,91,-1,-1,93,95,97,99,-1,101,-1,-1,-1,-1,-1,-1,-1,-1,-1,-1,-1,-1,-1,-1,-1,-1,-1,-1,-1,-1,-1,-1,-1,-1,-1,-1,-1,-1,-1,-1,-1],"loss_changes":[6.473143E3,9.72728E2,3.1564534E3,8.8440686E2,1.343999E2,9.493638E2,2.4238037E1,4.792682E1,1.5721439E2,5.0551605E1,1.2758301E1,0E0,3.812207E2,6.595206E1,1.5157471E0,0E0,3.574321E1,0E0,8.834958E1,5.356298E1,1.36315E1,9.264465E0,1.4204102E0,2.0606726E2,5.537256E1,0E0,0E0,2.0531357E1,0E0,1.9706772E1,3.1925198E1,8.83902E1,0E0,0E0,2.6407127E1,3.3988342E0,8.328551E0,3.4618835E0,1.466113E1,2.2118896E1,2.3071289E-1,3.3943182E2,2.2514038E1,3.1439453E1,0E0,0E0,0E0,1.6408333E1,8.911896E-1,0E0,0E0,6.640523E1,0E0,1.4519093E1,2.1768862E1,5.4953003E0,0E0,5.6523433E0,0E0,2.7657928E0,0E0,4.1419086E0,0E0,1.5773926E0,0E0,0E0,2.4745613E1,4.8894897E1,5.388848E1,1.02787384E2,0E0,1.24701416E2,0E0,0E0,0E0,0E0,0E0,0E0,0E0,0E0,0E0,0E0,0E0,0E0,0E0,0E0,0E0,0E0,0E0,0E0,0E0,0E0,0E0,0E0,0E0,0E0,0E0,0E0,0E0,0E0,0E0,0E0,0E0],"parents":[2147483647,0,0,1,1,2,2,3,3,4,4,5,5,6,6,7,7,8,8,9,9,10,10,12,12,13,13,14,14,16,16,18,18,19,19,20,20,21,21,22,22,23,23,24,24,27,27,29,29,30,30,31,31,34,34,35,35,36,36,37,37,38,38,39,39,40,40,41,41,42,42,43,43,47,47,48,48,51,51,53,53,54,54,55,55,57,57,59,59,61,61,63,63,66,66,67,67,68,68,69,69,71,71],"right_children":[2,4,6,8,10,12,14,16,18,20,22,-1,24,26,28,-1,30,-1,32,34,36,38,40,42,44,-1,-1,46,-1,48,50,52,-1,-1,54,56,58,60,62,64,66,68,70,72,-1,-1,-1,74,76,-1,-1,78,-1,80,82,84,-1,86,-1,88,-1,90,-1,92,-1,-1,94,96,98,100,-1,102,-1,-1,-1,-1,-1,-1,-1,-1,-1,-1,-1,-1,-1,-1,-1,-1,-1,-1,-1,-1,-1,-1,-1,-1,-1,-1,-1,-1,-1,-1,-1],"split_conditions":[5E0,1E0,6E1,2E0,3.5E1,1E0,6.3E1,1E0,1E0,2.0833334E-2,3.8E1,3.5314974E-1,1E1,3E0,6.6E1,3.5378802E-1,2E0,3.479118E-1,6.2E1,1E0,1E0,1E0,4.5E1,1E0,1E0,3.2174096E-1,-3.327259E-1,3E0,3.5371915E-1,3.7E1,6E1,1E0,3.4181237E-1,3.5017323E-1,1E0,1.3513513E-1,3.3E1,2.0833334E-2,1E0,2E0,3E0,4.5E1,2E0,2E0,3.2443935E-1,3.3950564E-1,-2.2199738E-1,1E0,4.1E1,-3.3432108E-1,3.1613326E-1,3E0,-3.411448E-1,1E0,3E0,5.7142857E-2,3.313017E-1,5.7142857E-2,3.1329253E-1,1E0,3.3444238E-1,3.7E1,-2.89164E-1,2.0833334E-2,-2.2199738E-1,3.5337272E-1,5.8E1,7E0,1E0,4.6E1,-3.5261694E-1,4.7E1,-3.5415205E-1,1.0909945E-1,2.894617E-1,2.4371284E-1,3.1627485E-1,-2.9275373E-1,-7.533619E-2,1.5113068E-1,-2.512447E-2,1.6130961E-1,-2.1940401E-1,3.462738E-1,2.1005836E-1,2.6925522E-1,-1.0098655E-1,3.4337524E-1,2.333333E-1,2.831246E-1,7.8518085E-2,3.1747892E-1,3.5173288E-1,-2.89164E-1,3.49858E-1,-1.20679945E-1,-2.0341054E-1,4.2830803E-2,2.7785456E-1,-3.0199873E-1,3.0466387E-1,-2.9485852E-1,-1.9562555E-2],"split_indices":[19,2,0,19,0,9,0,9,9,14,0,0,19,16,0,0,16,0,0,9,18,18,0,16,5,0,0,16,0,0,0,16,0,0,17,14,0,14,17,16,16,0,16,16,0,0,0,7,0,0,0,19,0,18,19,14,0,14,0,9,0,0,0,14,0,0,0,19,2,0,0,0,0,0,0,0,0,0,0,0,0,0,0,0,0,0,0,0,0,0,0,0,0,0,0,0,0,0,0,0,0,0,0],"split_type":[0,0,0,0,0,0,0,0,0,0,0,0,0,0,0,0,0,0,0,0,0,0,0,0,0,0,0,0,0,0,0,0,0,0,0,0,0,0,0,0,0,0,0,0,0,0,0,0,0,0,0,0,0,0,0,0,0,0,0,0,0,0,0,0,0,0,0,0,0,0,0,0,0,0,0,0,0,0,0,0,0,0,0,0,0,0,0,0,0,0,0,0,0,0,0,0,0,0,0,0,0,0,0],"sum_hessian":[5.511E3,2.197E3,3.314E3,6.6725E2,1.52975E3,2.95075E3,3.6325E2,3.0175E2,3.655E2,2.935E2,1.23625E3,8.875E1,2.862E3,2.6E1,3.3725E2,1.4925E2,1.525E2,2.025E1,3.4525E2,1.635E2,1.3E2,1.2575E2,1.1105E3,1.27825E3,1.58375E3,2E1,6E0,2.25E1,3.1475E2,1.4275E2,9.75E0,3.3475E2,1.05E1,3.05E1,1.33E2,1.2E2,1E1,1.0975E2,1.6E1,3.2275E2,7.8775E2,1.0355E3,2.4275E2,1.5795E3,4.25E0,2.05E1,2E0,7.35E1,6.925E1,6.5E0,3.25E0,2.595E2,7.525E1,1.125E2,2.05E1,4.625E1,7.375E1,7E0,3E0,5.075E1,5.9E1,1.425E1,1.75E0,3.2075E2,2E0,7.575E2,3.025E1,9.11E2,1.245E2,9.25E1,1.5025E2,1.33575E3,2.4375E2,5E1,2.35E1,1.525E1,5.4E1,5.625E1,2.0325E2,9.525E1,1.725E1,6.75E0,1.375E1,1.625E1,3E1,1.25E0,5.75E0,1.2E1,3.875E1,9E0,5.25E0,1.5575E2,1.65E2,1.75E0,2.85E1,4.17E2,4.94E2,7E1,5.45E1,8.3E1,9.5E0,1.28175E3,5.4E1],"tree_param":{"num_deleted":"0","num_feature":"21","num_nodes":"103","size_leaf_vector":"1"}},{"base_weights":[-1.6764892E-3,-6.260114E-1,1.3561598E0,-8.5462147E-1,1.6361572E0,2.7441934E-2,1.6121947E0,3.0178836E-1,-1.0300106E0,5.754834E-1,3.014876E-1,7.933099E-1,-1.0566267E0,1.6702418E0,7.821374E-1,7.576852E-2,-1.2050532E0,3.0170983E-1,-2.8588265E-1,1.0018389E0,-1.5198829E0,-1.2214838E0,1.4688056E0,3.0140692E-1,1.48005E0,1.763568E0,-3.2879552E-1,-6.7622423E-1,7.289477E-1,-1.0663216E0,-1.7757494E0,1.1195875E0,-1.215414E0,-3.3842963E-1,2.3737496E-1,2.6331234E-1,-1.295982E0,2.8182393E-1,1.17130466E-1,6.531813E-1,1.5630262E0,1.2300435E0,1.9016695E0,-7.513905E-1,1.2223192E0,2.5098294E-1,-1.1368523E0,8.6745983E-1,-1.4939142E0,-8.627862E-1,-1.5725311E0,-1.8000464E0,3.0800146E-1,1.3042296E0,1.2942415E-1,-2.8926948E-1,1.3277313E-1,-1.044468E0,-3.3657324E-1,1.6972534E-1,2.6334208E-1,1.3187417E0,1.6780087E0,-8.392597E-2,2.9441872E-1,3.7656903E-1,2.9650682E-1,2.5947514E-1,-9.328815E-1,1.4432902E0,-3.0366175E-3,8.2330085E-2,-3.386261E-1,-2.1441768E-1,2.2341661E-1,1.7575052E-1,-2.7945784E-1,-3.3274797E-1,2.3854195E-1,-1.9434848E-1,2.683316E-1,-2.4113928E-1,-3.0088884E-1,-3.198258E-1,-1.2255074E-1,2.4712041E-1,7.51091E-2,-8.373716E-2,2.643133E-1,-1.1222784E-1,-2.527293E-1,2.4808444E-1,-1.8878078E-1,3.2601687E-1,2.0140523E-1,3.0645233E-1,1.5562502E-1,-1.8426093E-1,1.0685123E-1,1.1504635E-1,2.8682512E-1],"categories":[],"categories_nodes":[],"categories_segments":[],"categories_sizes":[],"default_left":[0,0,0,0,0,0,0,0,0,0,0,0,0,0,0,0,0,0,0,0,0,0,0,0,0,0,0,0,0,0,0,0,0,0,0,0,0,0,0,0,0,0,0,0,0,0,0,0,0,0,0,0,0,0,0,0,0,0,0,0,0,0,0,0,0,0,0,0,0,0,0,0,0,0,0,0,0,0,0,0,0,0,0,0,0,0,0,0,0,0,0,0,0,0,0,0,0,0,0,0,0],"id":1,"left_children":[1,3,5,7,9,11,13,-1,15,17,-1,19,21,23,25,27,29,-1,-1,31,33,35,37,-1,39,41,43,45,47,49,51,53,55,-1,-1,-1,57,-1,-1,59,61,63,65,67,69,71,73,75,77,79,81,83,-1,85,87,-1,-1,89,-1,91,-1,93,95,-1,-1,-1,-1,-1,97,99,-1,-1,-1,-1,-1,-1,-1,-1,-1,-1,-1,-1,-1,-1,-1,-1,-1,-1,-1,-1,-1,-1,-1,-1,-1,-1,-1,-1,-1,-1,-1],"loss_changes":[4.5845347E3,1.9163839E3,5.794619E2,1.5092007E3,2.2580688E1,2.291511E2,6.829346E1,0E0,6.095525E2,4.9984657E1,0E0,7.8617035E1,4.82853E1,6.3935547E0,1.02818665E2,2.1176363E2,2.1449438E2,0E0,0E0,3.933464E1,1.6027832E1,2.2431198E1,2.807989E-1,0E0,1.1964203E1,2.7568817E0,2.9512703E1,8.5714615E1,7.15449E1,2.2489575E2,4.655896E1,2.5767456E1,6.7547407E0,0E0,0E0,0E0,1.5074127E1,0E0,0E0,6.7838073E0,3.7156677E0,8.665934E0,5.776062E-1,1.4684507E1,2.6591654E0,3.1138096E1,2.3740143E1,6.6187805E1,1.5839777E1,8.6485754E2,1.5629761E1,1.3588867E0,0E0,9.104538E0,1.8820017E1,0E0,0E0,1.135788E1,0E0,1.7693495E1,0E0,4.32843E0,3.774292E0,0E0,0E0,0E0,0E0,0E0,5.5814667E0,7.180939E-1,0E0,0E0,0E0,0E0,0E0,0E0,0E0,0E0,0E0,0E0,0E0,0E0,0E0,0E0,0E0,0E0,0E0,0E0,0E0,0E0,0E0,0E0,0E0,0E0,0E0,0E0,0E0,0E0,0E0,0E0,0E0],"parents":[2147483647,0,0,1,1,2,2,3,3,4,4,5,5,6,6,8,8,9,9,11,11,12,12,13,13,14,14,15,15,16,16,19,19,20,20,21,21,22,22,24,24,25,25,26,26,27,27,28,28,29,29,30,30,31,31,32,32,36,36,39,39,40,40,41,41,42,42,43,43,44,44,45,45,46,46,47,47,48,48,49,49,50,50,51,51,53,53,54,54,57,57,59,59,61,61,62,62,68,68,69,69],"right_children":[2,4,6,8,10,12,14,-1,16,18,-1,20,22,24,26,28,30,-1,-1,32,34,36,38,-1,40,42,44,46,48,50,52,54,56,-1,-1,-1,58,-1,-1,60,62,64,66,68,70,72,74,76,78,80,82,84,-1,86,88,-1,-1,90,-1,92,-1,94,96,-1,-1,-1,-1,-1,98,100,-1,-1,-1,-1,-1,-1,-1,-1,-1,-1,-1,-1,-1,-1,-1,-1,-1,-1,-1,-1,-1,-1,-1,-1,-1,-1,-1,-1,-1,-1,-1],"split_conditions":[2E1,5.9E1,1E0,1E0,6.1E1,7E0,9E0,3.0178836E-1,4E0,3E0,3.014876E-1,1E0,6.6E1,5E0,1E0,1.4E1,1E0,3.0170983E-1,-2.8588265E-1,2E0,5.6E1,1E0,1E1,3.0140692E-1,2.1E1,1.2E1,5.2E1,2E0,1E0,1E0,1E0,1E0,6.5E1,-3.3842963E-1,2.3737496E-1,2.6331234E-1,1E0,2.8182393E-1,1.17130466E-1,4.2E1,2.5E1,2.3E1,6E1,1E0,2E0,1E0,1E0,2E0,1E0,3.8E1,2E0,5E1,3.0800146E-1,6E0,4.4E1,-2.8926948E-1,1.3277313E-1,1.1E1,-3.3657324E-1,3.6E1,2.6334208E-1,3.7E1,2.4E-1,-8.392597E-2,2.9441872E-1,3.7656903E-1,2.9650682E-1,2.5947514E-1,2.8E1,5.6E1,-3.0366175E-3,8.2330085E-2,-3.386261E-1,-2.1441768E-1,2.2341661E-1,1.7575052E-1,-2.7945784E-1,-3.3274797E-1,2.3854195E-1,-1.9434848E-1,2.683316E-1,-2.4113928E-1,-3.0088884E-1,-3.198258E-1,-1.2255074E-1,2.4712041E-1,7.51091E-2,-8.373716E-2,2.643133E-1,-1.1222784E-1,-2.527293E-1,2.4808444E-1,-1.8878078E-1,3.2601687E-1,2.0140523E-1,3.0645233E-1,1.5562502E-1,-1.8426093E-1,1.0685123E-1,1.1504635E-1,2.8682512E-1],"split_indices":[1,0,2,9,0,19,19,0,19,16,0,15,0,19,17,1,15,0,0,16,0,9,19,0,1,19,0,19,15,16,12,18,0,0,0,0,15,0,0,0,1,1,0,9,16,15,13,16,12,0,16,0,0,19,0,0,0,19,0,0,0,0,14,0,0,0,0,0,1,0,0,0,0,0,0,0,0,0,0,0,0,0,0,0,0,0,0,0,0,0,0,0,0,0,0,0,0,0,0,0,0],"split_type":[0,0,0,0,0,0,0,0,0,0,0,0,0,0,0,0,0,0,0,0,0,0,0,0,0,0,0,0,0,0,0,0,0,0,0,0,0,0,0,0,0,0,0,0,0,0,0,0,0,0,0,0,0,0,0,0,0,0,0,0,0,0,0,0,0,0,0,0,0,0,0,0,0,0,0,0,0,0,0,0,0,0,0,0,0,0,0,0,0,0,0,0,0,0,0,0,0,0,0,0,0],"sum_hessian":[5.407126E3,3.7041619E3,1.7029644E3,3.3644084E3,3.3975333E2,2.752044E2,1.4277599E3,2.1580408E2,3.1486042E3,1.9463867E1,3.2028946E2,1.6133313E2,1.13871284E2,1.3340651E3,9.369487E1,4.3033246E2,2.718272E3,1.2909146E1,6.5547214E0,1.4819835E2,1.3134775E1,1.0708575E2,6.785531E0,1.1541727E3,1.7989236E2,4.9623375E1,4.4071495E1,2.0002876E2,2.3030371E2,2.187618E3,5.306539E2,1.4091162E2,7.286728E0,1.1680236E1,1.4545397E0,2.667853E0,1.044179E2,5.573829E0,1.211702E0,1.6727076E1,1.6316528E2,1.1012047E1,3.861133E1,3.4796104E1,9.275392E0,6.645006E1,1.335787E2,2.1702246E2,1.3281245E1,1.5610343E3,6.2658374E2,5.272003E2,3.4535868E0,1.1865853E2,2.2253096E1,6.069927E0,1.2168009E0,7.440116E1,3.0016737E1,1.087975E1,5.847325E0,5.380419E1,1.093611E2,2.2112353E0,8.800811E0,1.8003412E1,2.0607916E1,2.4236453E0,3.237246E1,7.816781E0,1.4586102E0,6.076436E1,5.6857E0,1.2987036E2,3.7083445E0,2.0680885E2,1.0213609E1,1.1824123E1,1.4571221E0,1.421816E3,1.3921825E2,2.3222734E2,3.9435638E2,5.25451E2,1.7493206E0,1.0755162E2,1.110691E1,1.5611048E1,6.642048E0,3.6239944E1,3.8161213E1,5.4247165E0,5.4550333E0,1.30947695E1,4.070942E1,1.025233E2,6.837795E0,3.0401855E1,1.9706035E0,1.7403527E0,6.0764284E0],"tree_param":{"num_deleted":"0","num_feature":"21","num_nodes":"101","size_leaf_vector":"1"}},{"base_weights":[5.465085E-6,-5.439439E-1,1.19533E0,-7.385485E-1,1.4579109E0,3.7804622E-2,1.4240267E0,2.6925814E-1,-8.8604504E-1,5.334643E-1,2.6843423E-1,6.847117E-1,-9.1462505E-1,1.4801033E0,6.635712E-1,-3.58436E-1,-1.177205E0,2.6768503E-1,-2.547272E-1,8.5582024E-1,-1.2476659E0,-1.0546943E0,2.3155805E-1,1.5090162E0,1.2990862E0,1.5299214E0,-2.6989788E-1,-1.5425278E-1,-1.6032958E0,-1.1888726E0,3.4446383E-1,9.553504E-1,-1.1606613E0,-2.9099658E-1,2.2111826E-1,2.361424E-1,-1.1204362E0,1.3291931E0,2.6918113E-1,2.973854E-1,1.1336355E0,1.063968E0,2.919959E-1,-6.304391E-1,1.0255177E0,-4.538462E-1,1.7837443E0,2.3801269E-1,-1.6391103E0,-1.0987259E0,-1.542186E0,1.1421441E0,2.014453E-2,-2.531568E-1,1.7075412E-2,-8.949992E-1,-2.9119378E-1,2.5135833E-1,9.583108E-1,3.915506E-1,2.6068845E-1,-7.174724E-2,1.4587476E0,9.213749E-1,-9.6817935E-1,1.2902927E0,-3.7543774E-2,-1.4354429E-1,3.359958E-2,3.6266503E-1,3.0194524E-1,-2.9448316E-1,7.686643E-2,-2.1303368E-1,3.5171178E-1,2.888683E-1,-2.7726385E-1,1.5180972E-1,2.630842E-1,-1.832534E-1,1.1591444E-1,-1.9089766E-1,3.426539E-1,6.228996E-2,2.5305957E-1,1.3148174E-1,-2.465163E-1,2.7524766E-1,1.1727678E-1,3.0325225E-1,-1.0587267E-1,2.0284669E-1,-1.8969128E-1,9.903335E-2,2.571401E-1],"categories":[],"categories_nodes":[],"categories_segments":[],"categories_sizes":[],"default_left":[0,0,0,0,0,0,0,0,0,0,0,0,0,0,0,0,0,0,0,0,0,0,0,0,0,0,0,0,0,0,0,0,0,0,0,0,0,0,0,0,0,0,0,0,0,0,0,0,0,0,0,0,0,0,0,0,0,0,0,0,0,0,0,0,0,0,0,0,0,0,0,0,0,0,0,0,0,0,0,0,0,0,0,0,0,0,0,0,0,0,0,0,0,0,0],"id":2,"left_children":[1,3,5,7,9,11,13,-1,15,17,-1,19,21,23,25,27,29,-1,-1,31,33,35,-1,37,39,41,43,45,47,49,-1,51,53,-1,-1,-1,55,57,-1,-1,59,61,-1,63,65,67,69,-1,71,73,75,77,79,-1,-1,81,-1,-1,83,85,-1,-1,87,89,91,93,-1,-1,-1,-1,-1,-1,-1,-1,-1,-1,-1,-1,-1,-1,-1,-1,-1,-1,-1,-1,-1,-1,-1,-1,-1,-1,-1,-1,-1],"loss_changes":[3.3457236E3,1.3781101E3,4.2599512E2,1.0734248E3,1.5776794E1,1.6408252E2,5.691382E1,0E0,4.6465942E2,3.618751E1,0E0,5.285685E1,3.4046173E1,5.7700195E0,7.537902E1,2.7354718E2,7.187402E1,0E0,0E0,2.9724869E1,1.3614889E1,1.6521591E1,0E0,8.75E-1,1.0189301E1,1.9236526E0,2.1322992E1,5.3757367E2,1.686972E1,6.1200195E1,0E0,2.4319504E1,2.4153042E0,0E0,0E0,0E0,1.1057259E1,1.178627E0,0E0,0E0,3.046141E1,6.4804707E0,0E0,1.8975954E1,3.3750439E0,1.8339667E2,1.2503662E0,0E0,6.882965E0,4.897135E2,2.7314087E1,1.08302E1,1.600651E1,0E0,0E0,3.671049E1,0E0,0E0,3.020276E0,2.4643911E1,0E0,0E0,2.2950554E-1,8.250252E0,6.7703934E0,6.4376545E-1,0E0,0E0,0E0,0E0,0E0,0E0,0E0,0E0,0E0,0E0,0E0,0E0,0E0,0E0,0E0,0E0,0E0,0E0,0E0,0E0,0E0,0E0,0E0,0E0,0E0,0E0,0E0,0E0,0E0],"parents":[2147483647,0,0,1,1,2,2,3,3,4,4,5,5,6,6,8,8,9,9,11,11,12,12,13,13,14,14,15,15,16,16,19,19,20,20,21,21,23,23,24,24,25,25,26,26,27,27,28,28,29,29,31,31,32,32,36,36,37,37,40,40,41,41,43,43,44,44,45,45,46,46,48,48,49,49,50,50,51,51,52,52,55,55,58,58,59,59,62,62,63,63,64,64,65,65],"right_children":[2,4,6,8,10,12,14,-1,16,18,-1,20,22,24,26,28,30,-1,-1,32,34,36,-1,38,40,42,44,46,48,50,-1,52,54,-1,-1,-1,56,58,-1,-1,60,62,-1,64,66,68,70,-1,72,74,76,78,80,-1,-1,82,-1,-1,84,86,-1,-1,88,90,92,94,-1,-1,-1,-1,-1,-1,-1,-1,-1,-1,-1,-1,-1,-1,-1,-1,-1,-1,-1,-1,-1,-1,-1,-1,-1,-1,-1,-1,-1],"split_conditions":[2E1,5.9E1,1E0,1E0,6.1E1,7E0,9E0,2.6925814E-1,7E0,3E0,2.6843423E-1,1E0,6.6E1,5E0,1E0,1E0,1E0,2.6768503E-1,-2.547272E-1,2E0,5.6E1,1E0,2.3155805E-1,2.1E1,1E0,1.2E1,5.2E1,2E0,2E0,1E0,3.4446383E-1,1E0,6.3E1,-2.9099658E-1,2.2111826E-1,2.361424E-1,1E0,4E0,2.6918113E-1,2.973854E-1,4.8E1,2.3E1,2.919959E-1,1E0,2E0,1.5E1,3.8E1,2.3801269E-1,5E1,2E0,2E0,4.1E1,6E0,-2.531568E-1,1.7075412E-2,2E0,-2.9119378E-1,2.5135833E-1,4.2E1,1E0,2.6068845E-1,-7.174724E-2,1.9444445E-1,1.2E1,1E0,5.6E1,-3.7543774E-2,-1.4354429E-1,3.359958E-2,3.6266503E-1,3.0194524E-1,-2.9448316E-1,7.686643E-2,-2.1303368E-1,3.5171178E-1,2.888683E-1,-2.7726385E-1,1.5180972E-1,2.630842E-1,-1.832534E-1,1.1591444E-1,-1.9089766E-1,3.426539E-1,6.228996E-2,2.5305957E-1,1.3148174E-1,-2.465163E-1,2.7524766E-1,1.1727678E-1,3.0325225E-1,-1.0587267E-1,2.0284669E-1,-1.8969128E-1,9.903335E-2,2.571401E-1],"split_indices":[1,0,2,9,0,19,19,0,19,16,0,15,0,19,17,15,5,0,0,16,0,9,0,1,3,19,0,3,3,15,0,18,0,0,0,0,15,19,0,0,0,1,0,3,16,1,0,0,0,3,3,0,19,0,0,3,0,0,0,18,0,0,14,19,9,0,0,0,0,0,0,0,0,0,0,0,0,0,0,0,0,0,0,0,0,0,0,0,0,0,0,0,0,0,0],"split_type":[0,0,0,0,0,0,0,0,0,0,0,0,0,0,0,0,0,0,0,0,0,0,0,0,0,0,0,0,0,0,0,0,0,0,0,0,0,0,0,0,0,0,0,0,0,0,0,0,0,0,0,0,0,0,0,0,0,0,0,0,0,0,0,0,0,0,0,0,0,0,0,0,0,0,0,0,0,0,0,0,0,0,0,0,0,0,0,0,0,0,0,0,0,0,0],"sum_hessian":[5.144922E3,3.5360212E3,1.6089006E3,3.2229607E3,3.130606E2,2.6551035E2,1.3433903E3,1.9750471E2,3.025456E3,1.7984793E1,2.9507584E2,1.5818205E2,1.0732828E2,1.250781E3,9.260927E1,1.0761881E3,1.949268E3,1.2088784E1,5.8960075E0,1.4551782E2,1.2664232E1,1.0115482E2,6.1734514E0,1.0760055E3,1.7477551E2,4.790014E1,4.470913E1,9.2492664E2,1.5126144E2,1.9422487E3,7.019285E0,1.3887218E2,6.6456466E0,1.1057834E1,1.6063992E0,2.5074472E0,9.864738E1,5.224365E1,1.0237619E3,5.2143753E1,1.2263175E2,1.0377617E1,3.7522522E1,3.5134323E1,9.574805E0,8.013504E2,1.23576225E2,1.6433914E0,1.4961806E2,1.5487273E3,3.935213E2,1.1567894E2,2.319324E1,5.438325E0,1.2073214E0,6.962063E1,2.9026752E1,4.1320457E1,1.0923191E1,3.85E1,8.413175E1,2.196538E0,8.181079E0,6.1572824E0,2.8977041E1,7.8730683E0,1.701737E0,5.1607196E2,2.8527847E2,2.7086672E1,9.6489555E1,1.481799E2,1.4381486E0,1.4991636E3,4.956377E1,2.3964813E0,3.9112482E2,6.3660934E1,5.2018005E1,8.615197E0,1.4578042E1,6.565554E1,3.9650834E0,5.0600924E0,5.863099E0,3.2375324E1,6.124676E0,6.9894056E0,1.1916733E0,4.020004E0,2.1372786E0,1.1396803E0,2.783736E1,1.7283447E0,6.144724E0],"tree_param":{"num_deleted":"0","num_feature":"21","num_nodes":"95","size_leaf_vector":"1"}},{"base_weights":[6.5092724E-3,-4.7128412E-1,1.0804741E0,-6.39472E-1,1.3403547E0,4.2524602E-2,1.2962787E0,2.4743225E-1,-7.68631E-1,5.239958E-1,2.4651465E-1,6.071589E-1,-8.0326253E-1,1.3467411E0,6.1341256E-1,7.4462503E-1,-8.551018E-1,2.4545045E-1,-2.3278013E-1,7.4245715E-1,-1.0476089E0,-9.35242E-1,1.1956031E0,1.3823307E0,1.1316876E0,1.4056464E0,-2.4261369E-1,8.668077E-1,-1.3416215E0,-5.8969426E-1,-1.1555153E0,9.1950506E-1,-8.0748804E-2,-2.6074198E-1,2.0781769E-1,2.161411E-1,-9.932994E-1,2.3446344E-1,9.2682876E-2,1.1985908E0,2.4678025E-1,8.76147E-1,2.4395043E-1,1.0780109E0,2.6301304E-1,-5.9927875E-1,7.827987E-1,9.862624E-1,-2.7597877E-1,-2.7961195E-1,2.4331437E-2,-4.3364778E-1,-1.4210857E0,-1.1618366E0,2.4492548E-1,9.872477E-1,-9.824061E-1,-9.378188E-1,4.649196E-1,-7.908925E-1,-2.6208842E-1,2.2819333E-1,8.088246E-1,1.4989085E0,3.8538194E-1,-7.754444E-3,2.3278628E-1,7.281189E-1,-9.177839E-1,2.95746E-1,-1.1255164E0,-2.982433E-1,1.8962388E-1,-1.14057936E-1,2.895197E-1,-2.6125652E-1,2.5631928E-1,-1.22907884E-1,-2.1240188E-1,1.457378E-1,2.5197658E-1,-1.4734104E-2,-2.2806308E-1,-6.2168676E-2,-2.7207983E-1,1.52215E-1,-2.8895035E-1,-1.6480468E-1,2.8337258E-1,3.2777704E-2,2.314575E-1,1.388874E-1,2.7138886E-1,1.1913459E-1,-1.693542E-1,2.5039744E-1,-9.220923E-2,1.9450322E-1,-1.8514529E-1,-9.354267E-2,-2.627659E-1],"categories":[],"categories_nodes":[],"categories_segments":[],"categories_sizes":[],"default_left":[0,0,0,0,0,0,0,0,0,0,0,0,0,0,0,0,0,0,0,0,0,0,0,0,0,0,0,0,0,0,0,0,0,0,0,0,0,0,0,0,0,0,0,0,0,0,0,0,0,0,0,0,0,0,0,0,0,0,0,0,0,0,0,0,0,0,0,0,0,0,0,0,0,0,0,0,0,0,0,0,0,0,0,0,0,0,0,0,0,0,0,0,0,0,0,0,0,0,0,0,0],"id":3,"left_children":[1,3,5,7,9,11,13,-1,15,17,-1,19,21,23,25,27,29,-1,-1,31,33,35,37,39,41,43,45,47,49,51,53,55,57,-1,-1,-1,59,-1,-1,61,-1,63,-1,65,-1,67,69,71,-1,-1,-1,73,75,77,-1,79,81,83,85,87,-1,-1,89,91,93,-1,-1,95,97,-1,99,-1,-1,-1,-1,-1,-1,-1,-1,-1,-1,-1,-1,-1,-1,-1,-1,-1,-1,-1,-1,-1,-1,-1,-1,-1,-1,-1,-1,-1,-1],"loss_changes":[2.468829E3,1.01493677E3,3.3180627E2,8.011759E2,1.1152069E1,1.2216301E2,4.193286E1,0E0,3.752257E2,2.7285934E1,0E0,3.464881E1,2.7461563E1,8.116699E0,5.7862545E1,3.9998756E1,2.1587524E2,0E0,0E0,2.0728912E1,1.1707321E1,1.25215225E1,2.7964878E-1,9.6276855E-1,9.754669E0,4.8565674E-1,1.5272877E1,4.3085464E1,3.120678E0,1.8659009E2,2.1017822E1,1.5448166E1,1.2100021E1,0E0,0E0,0E0,8.750504E0,0E0,0E0,1.2581406E0,0E0,2.461821E1,0E0,2.626665E0,0E0,1.3299839E1,1.900625E1,3.1685242E1,0E0,0E0,0E0,5.2528906E2,3.4678986E1,2.0904297E1,0E0,7.651741E0,1.1088052E0,3.3060102E0,1.3605326E1,2.2767166E1,0E0,0E0,3.0139089E0,3.2167816E-1,1.7906675E1,0E0,0E0,5.570255E0,6.8139973E0,0E0,4.6947575E-1,0E0,0E0,0E0,0E0,0E0,0E0,0E0,0E0,0E0,0E0,0E0,0E0,0E0,0E0,0E0,0E0,0E0,0E0,0E0,0E0,0E0,0E0,0E0,0E0,0E0,0E0,0E0,0E0,0E0,0E0],"parents":[2147483647,0,0,1,1,2,2,3,3,4,4,5,5,6,6,8,8,9,9,11,11,12,12,13,13,14,14,15,15,16,16,19,19,20,20,21,21,22,22,23,23,24,24,25,25,26,26,27,27,28,28,29,29,30,30,31,31,32,32,36,36,39,39,41,41,43,43,45,45,46,46,47,47,51,51,52,52,53,53,55,55,56,56,57,57,58,58,59,59,62,62,63,63,64,64,67,67,68,68,70,70],"right_children":[2,4,6,8,10,12,14,-1,16,18,-1,20,22,24,26,28,30,-1,-1,32,34,36,38,40,42,44,46,48,50,52,54,56,58,-1,-1,-1,60,-1,-1,62,-1,64,-1,66,-1,68,70,72,-1,-1,-1,74,76,78,-1,80,82,84,86,88,-1,-1,90,92,94,-1,-1,96,98,-1,100,-1,-1,-1,-1,-1,-1,-1,-1,-1,-1,-1,-1,-1,-1,-1,-1,-1,-1,-1,-1,-1,-1,-1,-1,-1,-1,-1,-1,-1,-1],"split_conditions":[2E1,5.9E1,1E0,1E0,6.1E1,7E0,9E0,2.4743225E-1,2E0,3E0,2.4651465E-1,1E0,6.6E1,5E0,1E0,1E0,1E1,2.4545045E-1,-2.3278013E-1,1E0,5.6E1,1E0,2.6E1,2.1E1,5.1E1,1.2E1,2E0,2E0,4.6E1,1E0,1E0,2E0,6E0,-2.6074198E-1,2.0781769E-1,2.161411E-1,1E0,2.3446344E-1,9.2682876E-2,4E0,2.4678025E-1,1E0,2.4395043E-1,2.3E1,2.6301304E-1,1E0,1E0,9E0,-2.7597877E-1,-2.7961195E-1,2.4331437E-2,2E0,1E0,7E0,2.4492548E-1,4.6E1,4E0,4E0,1.6129032E-1,2E0,-2.6208842E-1,2.2819333E-1,4.2E1,2.9E1,1E0,-7.754444E-3,2.3278628E-1,1.2E1,1E0,2.95746E-1,3E0,-2.982433E-1,1.8962388E-1,-1.14057936E-1,2.895197E-1,-2.6125652E-1,2.5631928E-1,-1.22907884E-1,-2.1240188E-1,1.457378E-1,2.5197658E-1,-1.4734104E-2,-2.2806308E-1,-6.2168676E-2,-2.7207983E-1,1.52215E-1,-2.8895035E-1,-1.6480468E-1,2.8337258E-1,3.2777704E-2,2.314575E-1,1.388874E-1,2.7138886E-1,1.1913459E-1,-1.693542E-1,2.5039744E-1,-9.220923E-2,1.9450322E-1,-1.8514529E-1,-9.354267E-2,-2.627659E-1],"split_indices":[1,0,2,9,0,19,19,0,19,16,0,15,0,19,17,15,19,0,0,18,0,9,1,1,0,19,3,16,0,15,5,16,19,0,0,0,15,0,0,19,0,3,0,1,0,3,15,1,0,0,0,3,12,1,0,0,19,19,14,3,0,0,0,0,18,0,0,19,9,0,3,0,0,0,0,0,0,0,0,0,0,0,0,0,0,0,0,0,0,0,0,0,0,0,0,0,0,0,0,0,0],"split_type":[0,0,0,0,0,0,0,0,0,0,0,0,0,0,0,0,0,0,0,0,0,0,0,0,0,0,0,0,0,0,0,0,0,0,0,0,0,0,0,0,0,0,0,0,0,0,0,0,0,0,0,0,0,0,0,0,0,0,0,0,0,0,0,0,0,0,0,0,0,0,0,0,0,0,0,0,0,0,0,0,0,0,0,0,0,0,0,0,0,0,0,0,0,0,0,0,0,0,0,0,0],"sum_hessian":[4.8104917E3,3.3294734E3,1.4810183E3,3.046867E3,2.8260648E2,2.5500482E2,1.2260134E3,1.8164769E2,2.8652192E3,1.6426394E1,2.6618008E2,1.52986E2,1.0201884E2,1.1412888E3,8.472468E1,1.5471182E2,2.7105073E3,1.1254531E1,5.171862E0,1.4162517E2,1.1360823E1,9.589814E1,6.120696E0,9.77385E2,1.6390381E2,4.3869797E1,4.0854885E1,1.4637143E2,8.340393E0,1.4397241E3,1.2707832E3,1.1651919E2,2.5105988E1,9.656549E0,1.7042735E0,2.3088531E0,9.358929E1,4.831119E0,1.2895772E0,4.834043E1,9.2904456E2,8.090391E1,8.29999E1,9.502594E0,3.43672E1,3.0434181E1,1.0420705E1,1.3971802E2,6.6534076E0,7.1748724E0,1.1655207E0,1.2127104E3,2.2701363E2,1.2678386E3,2.9446437E0,1.12696045E2,3.8231428E0,9.655601E0,1.5450388E1,6.6744125E1,2.6845161E1,3.869237E1,9.648058E0,3.5297478E1,4.5606426E1,1.6984296E0,7.804165E0,5.790565E0,2.4643616E1,7.1543274E0,3.2663774E0,3.9781578E0,1.3573987E2,1.1013436E3,1.1136682E2,2.2316493E2,3.848695E0,9.0299706E1,1.177539E3,8.237812E1,3.0317923E1,1.0921985E0,2.7309442E0,5.18158E0,4.4740205E0,1.3204624E1,2.2457638E0,6.332041E1,3.4237113E0,4.5147533E0,5.1333046E0,1.9074448E0,3.3390034E1,3.7741684E1,7.864743E0,3.7076874E0,2.0828774E0,1.2716699E0,2.3371946E1,1.586248E0,1.6801294E0],"tree_param":{"num_deleted":"0","num_feature":"21","num_nodes":"101","size_leaf_vector":"1"}},{"base_weights":[4.584259E-3,8.2083935E-1,-5.1763123E-1,-7.4039972E-3,1.1117831E0,-7.0778656E-1,1.238558E0,8.8828844E-1,-5.612319E-1,7.564765E-1,1.2662715E0,2.3540428E-1,-7.645103E-1,6.047679E-1,2.3044358E-1,3.7668908E-1,2.3877713E-1,-6.71556E-1,2.3447667E-1,8.876479E-1,-1.1780608E-1,1.1375554E0,2.2925276E-1,-6.4262664E-1,-1.3289611E0,1.1926044E0,-2.4575686E-1,5.77775E-1,-1.083221E0,-5.392624E-1,-2.4428375E-1,9.594275E-1,-5.391241E-2,-1.5491959E0,2.9594418E-1,1.2251632E0,8.2127976E-1,-4.4426778E-1,-1.2209597E0,-2.3956747E-1,2.4116051E-1,2.301663E-1,7.8305024E-1,-2.529649E-1,7.149437E-1,-1.3435001E0,1.1227825E-1,-3.9306554E-1,-1.379472E0,1.0136567E0,6.65859E-2,-1.2302074E0,2.270788E-1,-1.1238941E0,-3.3158207E-1,8.74166E-1,-9.633107E-1,1.2525287E0,5.514975E-1,5.920063E-1,2.2693016E-1,-6.5504134E-1,1.0907377E0,-1.0017307E0,-2.3977049E-1,2.6445419E-2,2.0394231E-1,1.5214877E-1,-9.160613E-2,-3.348738E-1,-1.7521192E-1,-1.0409795E-1,2.6415363E-1,-2.4989773E-1,-1.1921965E-1,1.5522282E-1,2.3484127E-1,-2.2144794E-1,2.2385284E-1,-2.4460334E-1,4.7085494E-2,-2.415742E-1,-1.1451136E-1,1.8692999E-1,-2.660444E-1,-2.1447009E-1,8.4513225E-2,2.2376789E-1,9.10042E-2,-3.9479155E-2,1.7273384E-1,7.040415E-2,2.1617897E-1,-6.50019E-2,-1.6375832E-1,2.999162E-1,1.1403062E-1,-2.0301327E-1,2.2466272E-1],"categories":[],"categories_nodes":[],"categories_segments":[],"categories_sizes":[],"default_left":[0,0,0,0,0,0,0,0,0,0,0,0,0,0,0,0,0,0,0,0,0,0,0,0,0,0,0,0,0,0,0,0,0,0,0,0,0,0,0,0,0,0,0,0,0,0,0,0,0,0,0,0,0,0,0,0,0,0,0,0,0,0,0,0,0,0,0,0,0,0,0,0,0,0,0,0,0,0,0,0,0,0,0,0,0,0,0,0,0,0,0,0,0,0,0,0,0,0,0],"id":4,"left_children":[1,3,5,7,9,11,13,15,17,19,21,-1,23,25,-1,27,-1,29,-1,31,33,35,-1,37,39,41,-1,43,45,47,-1,49,51,53,55,57,59,61,63,-1,-1,-1,65,-1,67,69,-1,71,73,75,77,79,-1,81,-1,83,85,87,89,91,-1,93,95,97,-1,-1,-1,-1,-1,-1,-1,-1,-1,-1,-1,-1,-1,-1,-1,-1,-1,-1,-1,-1,-1,-1,-1,-1,-1,-1,-1,-1,-1,-1,-1,-1,-1,-1,-1],"loss_changes":[1.8940482E3,4.1776E2,9.052725E2,2.2395406E2,7.004199E1,2.8267126E2,9.879822E0,4.021315E1,5.8312263E1,4.4741257E1,2.439087E0,0E0,1.6334497E2,2.8615402E1,0E0,2.4328773E1,0E0,2.4334084E1,0E0,2.2930023E1,3.0504574E1,3.890335E0,0E0,2.24341E2,2.541217E1,3.9967537E-1,0E0,2.0294107E1,4.835122E0,2.715268E1,0E0,1.5223694E1,3.8896763E1,7.384987E-1,2.9496708E1,1.945755E0,3.3534737E0,4.7206076E2,1.38012085E1,0E0,0E0,0E0,1.0505044E0,0E0,1.2138271E1,9.771862E-1,0E0,6.980062E1,3.090515E-1,1.2303955E1,2.9650099E1,3.0767574E0,0E0,3.288026E-1,0E0,1.2430382E1,4.757674E0,5.1945496E-1,1.8552113E0,2.7328978E0,0E0,9.9125916E1,4.692926E1,6.161917E1,0E0,0E0,0E0,0E0,0E0,0E0,0E0,0E0,0E0,0E0,0E0,0E0,0E0,0E0,0E0,0E0,0E0,0E0,0E0,0E0,0E0,0E0,0E0,0E0,0E0,0E0,0E0,0E0,0E0,0E0,0E0,0E0,0E0,0E0,0E0],"parents":[2147483647,0,0,1,1,2,2,3,3,4,4,5,5,6,6,7,7,8,8,9,9,10,10,12,12,13,13,15,15,17,17,19,19,20,20,21,21,23,23,24,24,25,25,27,27,28,28,29,29,31,31,32,32,33,33,34,34,35,35,36,36,37,37,38,38,42,42,44,44,45,45,47,47,48,48,49,49,50,50,51,51,53,53,55,55,56,56,57,57,58,58,59,59,61,61,62,62,63,63],"right_children":[2,4,6,8,10,12,14,16,18,20,22,-1,24,26,-1,28,-1,30,-1,32,34,36,-1,38,40,42,-1,44,46,48,-1,50,52,54,56,58,60,62,64,-1,-1,-1,66,-1,68,70,-1,72,74,76,78,80,-1,82,-1,84,86,88,90,92,-1,94,96,98,-1,-1,-1,-1,-1,-1,-1,-1,-1,-1,-1,-1,-1,-1,-1,-1,-1,-1,-1,-1,-1,-1,-1,-1,-1,-1,-1,-1,-1,-1,-1,-1,-1,-1,-1],"split_conditions":[5E0,1.5E1,6E1,2E0,2.1E1,1E0,6.4E1,2.580645E-1,5.6E1,1E0,2.4E1,2.3540428E-1,1E0,3E0,2.3044358E-1,1E0,2.3877713E-1,1E0,2.3447667E-1,1E0,3E0,4E0,2.2925276E-1,1E0,1E0,2.9E1,-2.4575686E-1,9E0,5.4E1,2E0,-2.4428375E-1,2E0,1E0,1.8E1,4E0,1E0,2.0833334E-2,4E1,2E0,-2.3956747E-1,2.4116051E-1,2.301663E-1,2.0833334E-2,-2.529649E-1,1E0,3.7E1,1.1227825E-1,3.8E1,1E0,4.2E1,6.2E1,4.9E1,2.270788E-1,3.4E1,-3.3158207E-1,1E0,5.1E1,2E0,2.2E1,5.4E1,2.2693016E-1,1E1,1.9E1,4.6E1,-2.3977049E-1,2.6445419E-2,2.0394231E-1,1.5214877E-1,-9.160613E-2,-3.348738E-1,-1.7521192E-1,-1.0409795E-1,2.6415363E-1,-2.4989773E-1,-1.1921965E-1,1.5522282E-1,2.3484127E-1,-2.2144794E-1,2.2385284E-1,-2.4460334E-1,4.7085494E-2,-2.415742E-1,-1.1451136E-1,1.8692999E-1,-2.660444E-1,-2.1447009E-1,8.4513225E-2,2.2376789E-1,9.10042E-2,-3.9479155E-2,1.7273384E-1,7.040415E-2,2.1617897E-1,-6.50019E-2,-1.6375832E-1,2.999162E-1,1.1403062E-1,-2.0301327E-1,2.2466272E-1],"split_indices":[19,1,0,19,1,9,0,14,0,18,1,0,15,16,0,16,0,15,0,15,19,19,0,16,12,1,0,1,0,16,0,16,12,1,19,17,14,0,16,0,0,0,14,0,15,0,0,0,11,0,0,0,0,0,0,17,0,15,1,0,0,19,1,0,0,0,0,0,0,0,0,0,0,0,0,0,0,0,0,0,0,0,0,0,0,0,0,0,0,0,0,0,0,0,0,0,0,0,0],"split_type":[0,0,0,0,0,0,0,0,0,0,0,0,0,0,0,0,0,0,0,0,0,0,0,0,0,0,0,0,0,0,0,0,0,0,0,0,0,0,0,0,0,0,0,0,0,0,0,0,0,0,0,0,0,0,0,0,0,0,0,0,0,0,0,0,0,0,0,0,0,0,0,0,0,0,0,0,0,0,0,0,0,0,0,0,0,0,0,0,0,0,0,0,0,0,0,0,0,0,0],"sum_hessian":[4.4426074E3,1.733232E3,2.7093752E3,4.5067108E2,1.2825609E3,2.4448865E3,2.6448868E2,1.720992E2,2.7857187E2,3.8937674E2,8.931842E2,6.6059074E1,2.3788274E3,2.3500565E1,2.4098813E2,8.1631165E1,9.046803E1,2.6339685E2,1.5175013E1,3.385737E2,5.080305E1,1.5443033E2,7.387539E2,1.9570781E3,4.2174936E2,1.8265226E1,5.2353387E0,7.195942E1,9.671745E0,2.2240628E2,4.0990578E1,3.1458423E2,2.3989464E1,1.1148045E1,3.9655006E1,1.2003903E2,3.4391296E1,1.4577837E3,4.9929446E2,4.1856122E2,3.1881418E0,1.3850213E1,4.4150124E0,4.3709493E0,6.758847E1,8.473066E0,1.1986793E0,1.8993925E2,3.2467026E1,2.9652026E2,1.8063974E1,1.2765754E1,1.122371E1,5.5576644E0,5.59038E0,2.7259539E1,1.2395466E1,1.150253E2,5.0137343E0,2.3527685E1,1.086361E1,1.2819808E3,1.7580286E2,1.8794565E2,3.1134882E2,1.8229556E0,2.5920568E0,6.0669285E1,6.919184E0,2.6719325E0,5.801133E0,1.7245299E2,1.7486258E1,3.0789867E1,1.6771587E0,2.0608678E2,9.0433464E1,8.5932E0,9.470775E0,1.1638268E1,1.1274855E0,3.220638E0,2.3370261E0,2.554592E1,1.7136202E0,1.0641738E1,1.753728E0,1.1334982E2,1.675477E0,1.8360124E0,3.177722E0,1.8438263E1,5.089423E0,6.1806635E2,6.639144E2,7.464828E1,1.0115458E2,1.7699385E2,1.0951809E1],"tree_param":{"num_deleted":"0","num_feature":"21","num_nodes":"99","size_leaf_vector":"1"}},{"base_weights":[2.7925752E-3,-3.5813057E-1,9.9976677E-1,-4.900357E-1,1.2046002E0,1.0194337E-1,1.1643127E0,2.2295454E-1,-5.9456855E-1,6.859159E-1,2.2115201E-1,5.44634E-1,-6.971322E-1,1.2070308E0,5.52822E-1,-2.032711E-1,-8.416206E-1,1.0325278E0,-3.315905E-1,6.528786E-1,-9.437667E-1,-7.917326E-1,1.9922963E-1,2.18978E-1,1.0453073E0,2.2561935E-1,-4.2665517E-1,-4.5911282E-1,3.3980027E-1,-7.4931306E-1,-1.2502013E0,1.9907573E-1,1.839738E-2,1.7028402E-1,-1.571315E-1,7.2185814E-1,-3.0261716E-1,-2.3079552E-1,1.6525471E-1,-6.0297734E-1,-2.3151098E-1,8.563066E-1,2.1809953E-1,-6.574596E-1,1.7812417E-1,3.8574627E-1,-5.852732E-1,-1.031171E-1,7.6027375E-1,-2.6322237E-1,-8.21549E-1,-2.2428328E-1,2.023538E-1,2.286214E-1,6.077917E-1,-3.8226318E-1,-2.2523466E-1,1.2378377E0,4.859823E-1,4.3718618E-1,-9.408663E-1,3.3968836E-2,2.542942E-1,-8.306882E-2,-2.2310987E-1,1.2423943E-2,-2.2666363E-1,2.581937E-1,7.396706E-2,-6.397481E-2,5.161847E-1,-1.4814648E-1,3.0565828E-1,5.4495975E-2,1.6620408E-1,-1.0583538E-2,-1.8654613E-1,9.929084E-2,2.4631262E-1,1.5284049E-2,2.1742238E-1,2.1090038E-1,-1.9464958E-1,-2.2390968E-1,-5.2497152E-2],"categories":[],"categories_nodes":[],"categories_segments":[],"categories_sizes":[],"default_left":[0,0,0,0,0,0,0,0,0,0,0,0,0,0,0,0,0,0,0,0,0,0,0,0,0,0,0,0,0,0,0,0,0,0,0,0,0,0,0,0,0,0,0,0,0,0,0,0,0,0,0,0,0,0,0,0,0,0,0,0,0,0,0,0,0,0,0,0,0,0,0,0,0,0,0,0,0,0,0,0,0,0,0,0,0],"id":5,"left_children":[1,3,5,7,9,11,13,-1,15,17,-1,19,21,23,25,27,29,31,33,35,37,39,-1,-1,41,-1,43,45,47,49,51,-1,-1,-1,-1,53,-1,-1,-1,55,-1,57,-1,59,-1,61,63,65,67,69,71,-1,-1,-1,73,75,-1,77,79,81,83,-1,-1,-1,-1,-1,-1,-1,-1,-1,-1,-1,-1,-1,-1,-1,-1,-1,-1,-1,-1,-1,-1,-1,-1],"loss_changes":[1.4696759E3,6.1837286E2,1.6033215E2,5.053733E2,4.7814636E0,5.9784355E1,2.369934E1,0E0,2.52219E2,6.6546183E0,0E0,1.7757687E1,1.0732248E1,3.3125E0,4.293344E1,1.4046701E2,5.9957397E1,1.1125288E0,3.9148717E0,1.701624E1,5.5305896E0,5.263813E0,0E0,0E0,4.0251923E0,0E0,8.839106E0,7.332587E1,6.0341812E1,4.5765137E1,1.065509E1,0E0,0E0,0E0,0E0,6.0907097E0,0E0,0E0,0E0,6.107705E0,0E0,8.842346E0,0E0,7.175581E0,0E0,1.8110302E1,4.6795486E1,3.219171E1,3.9426254E1,5.2857758E1,4.025232E1,0E0,0E0,0E0,8.1133995E0,7.0433626E0,0E0,2.9039688E0,9.79918E0,6.193797E0,3.6008148E0,0E0,0E0,0E0,0E0,0E0,0E0,0E0,0E0,0E0,0E0,0E0,0E0,0E0,0E0,0E0,0E0,0E0,0E0,0E0,0E0,0E0,0E0,0E0,0E0],"parents":[2147483647,0,0,1,1,2,2,3,3,4,4,5,5,6,6,8,8,9,9,11,11,12,12,13,13,14,14,15,15,16,16,17,17,18,18,19,19,20,20,21,21,24,24,26,26,27,27,28,28,29,29,30,30,35,35,39,39,41,41,43,43,45,45,46,46,47,47,48,48,49,49,50,50,54,54,55,55,57,57,58,58,59,59,60,60],"right_children":[2,4,6,8,10,12,14,-1,16,18,-1,20,22,24,26,28,30,32,34,36,38,40,-1,-1,42,-1,44,46,48,50,52,-1,-1,-1,-1,54,-1,-1,-1,56,-1,58,-1,60,-1,62,64,66,68,70,72,-1,-1,-1,74,76,-1,78,80,82,84,-1,-1,-1,-1,-1,-1,-1,-1,-1,-1,-1,-1,-1,-1,-1,-1,-1,-1,-1,-1,-1,-1,-1,-1],"split_conditions":[2.1E1,6E1,1E0,1E0,6.3E1,7E0,9E0,2.2295454E-1,7E0,1E1,2.2115201E-1,1E0,7E1,5E0,1E0,1.6E1,1E0,1E0,1.8E1,1.8421052E-1,5.6E1,1.5E1,1.9922963E-1,2.18978E-1,5.1E1,2.2561935E-1,5.6E1,2E0,1E0,8E0,1E0,1.9907573E-1,1.839738E-2,1.7028402E-1,-1.571315E-1,1E0,-3.0261716E-1,-2.3079552E-1,1.6525471E-1,1E0,-2.3151098E-1,4E1,2.1809953E-1,3.7E1,1.7812417E-1,2.6923078E-1,1E0,1E0,3.3E1,1E0,1E0,-2.2428328E-1,2.023538E-1,2.286214E-1,4.1E1,1E0,-2.2523466E-1,2.2E1,2.8E1,1.2E1,2.4E1,3.3968836E-2,2.542942E-1,-8.306882E-2,-2.2310987E-1,1.2423943E-2,-2.2666363E-1,2.581937E-1,7.396706E-2,-6.397481E-2,5.161847E-1,-1.4814648E-1,3.0565828E-1,5.4495975E-2,1.6620408E-1,-1.0583538E-2,-1.8654613E-1,9.929084E-2,2.4631262E-1,1.5284049E-2,2.1742238E-1,2.1090038E-1,-1.9464958E-1,-2.2390968E-1,-5.2497152E-2],"split_indices":[1,0,2,9,0,19,19,0,19,19,0,15,0,19,17,1,15,18,1,14,0,19,0,0,0,0,0,19,2,1,12,0,0,0,0,9,0,0,0,15,0,0,0,0,0,14,15,15,0,13,5,0,0,0,0,18,0,1,1,19,1,0,0,0,0,0,0,0,0,0,0,0,0,0,0,0,0,0,0,0,0,0,0,0,0],"split_type":[0,0,0,0,0,0,0,0,0,0,0,0,0,0,0,0,0,0,0,0,0,0,0,0,0,0,0,0,0,0,0,0,0,0,0,0,0,0,0,0,0,0,0,0,0,0,0,0,0,0,0,0,0,0,0,0,0,0,0,0,0,0,0,0,0,0,0,0,0,0,0,0,0,0,0,0,0,0,0,0,0,0,0,0,0],"sum_hessian":[4.0835583E3,2.9983528E3,1.0852054E3,2.7652217E3,2.3313116E2,1.6818274E2,9.170227E2,1.5586372E2,2.609358E3,1.8086521E1,2.1504463E2,1.0830695E2,5.9875786E1,8.5678217E2,6.0240536E1,1.010146E3,1.599212E3,1.348671E1,4.5998116E0,1.01172005E2,7.13495E0,5.7131153E1,2.74463E0,7.2965906E2,1.2712314E2,3.4666313E1,2.5574223E1,6.8670166E2,3.2344434E2,1.3054142E3,2.937978E2,1.2221056E1,1.265654E0,1.2939467E0,3.3058648E0,9.8565315E1,2.6066904E0,6.0948114E0,1.0401387E0,4.240729E1,1.4723862E1,6.3878254E1,6.324488E1,2.2206923E1,3.3672996E0,8.911387E1,5.9758777E2,1.5766368E2,1.6578067E2,1.6913248E2,1.1362817E3,2.9223297E2,1.5648246E0,1.5820151E1,8.274516E1,3.2331665E1,1.0075627E1,3.1005058E1,3.28732E1,4.522559E0,1.7684364E1,7.557653E1,1.3537337E1,5.0966855E2,8.791924E1,1.3773503E2,1.9928642E1,5.435773E1,1.1142294E2,1.6443353E2,4.698944E0,1.1304547E3,5.8269725E0,4.366235E1,3.908281E1,2.2110435E1,1.02212305E1,5.9846835E0,2.5020374E1,2.1628716E1,1.1244482E1,3.0954428E0,1.4271163E0,1.1546572E1,6.137792E0],"tree_param":{"num_deleted":"0","num_feature":"21","num_nodes":"85","size_leaf_vector":"1"}},{"base_weights":[7.953595E-3,-1.811625E-1,1.0713427E0,2.5002044E-1,-5.8015525E-1,2.1309902E-1,4.1105634E-1,-2.206845E-1,7.231694E-1,2.1274792E-1,-6.268831E-1,-2.3093984E-1,2.1175246E-1,8.1772953E-1,-4.989049E-1,1.2718552E0,3.3094335E-1,-5.151282E-1,-1.209192E0,9.0704113E-1,-1.1174903E0,-3.5071993E-1,-2.1242599E-1,-8.759762E-2,1.2854972E0,-4.4304883E-1,9.7172105E-1,-6.534148E-1,1.6529896E0,-2.1750128E-1,2.0133589E-1,1.0283624E0,-7.003935E-1,-2.3764196E-1,-1.4164446E-2,-9.9338494E-2,-1.1464789E0,1.5085638E0,2.1829958E-1,2.0945178E-1,-5.5667216E-1,9.9310654E-1,-1.8114068E-1,-3.7842516E-2,-7.7839726E-1,3.6167476E-1,2.6152527E-1,8.366334E-2,2.0042789E-1,-9.899917E-3,-2.3663051E-1,-6.946783E-2,1.4317183E-1,-1.6439058E-1,-2.27269E-1,1.6204321E-1,2.7678695E-1,-1.498111E-1,-2.495834E-2,1.7913093E-1,-1.9969897E-1,-1.1729002E-1,1.4376009E-1,-1.0442822E-1,-1.985118E-1],"categories":[],"categories_nodes":[],"categories_segments":[],"categories_sizes":[],"default_left":[0,0,0,0,0,0,0,0,0,0,0,0,0,0,0,0,0,0,0,0,0,0,0,0,0,0,0,0,0,0,0,0,0,0,0,0,0,0,0,0,0,0,0,0,0,0,0,0,0,0,0,0,0,0,0,0,0,0,0,0,0,0,0,0,0],"id":6,"left_children":[1,3,5,7,9,-1,11,13,15,-1,17,-1,-1,19,21,23,25,27,29,31,33,35,-1,-1,37,39,41,43,45,-1,-1,47,49,-1,-1,51,53,55,-1,-1,57,59,-1,61,63,-1,-1,-1,-1,-1,-1,-1,-1,-1,-1,-1,-1,-1,-1,-1,-1,-1,-1,-1,-1],"loss_changes":[7.5644275E2,5.4946747E2,4.8604553E1,3.4195612E2,1.3824231E2,0E0,1.2682382E2,2.2257826E2,1.6461093E2,0E0,1.049552E2,0E0,0E0,2.8544952E1,6.2730286E1,7.9370117E0,2.2187827E2,4.0728827E2,1.0978424E1,3.0681915E1,1.6555061E0,1.0031543E2,0E0,0E0,3.1270142E0,3.7670296E1,1.0831116E1,9.815259E1,4.422119E0,0E0,0E0,7.999695E0,4.5347667E0,0E0,0E0,1.0128061E2,3.0953522E0,1.308609E0,0E0,0E0,2.268243E1,9.104187E0,0E0,1.1432989E2,6.8281555E1,0E0,0E0,0E0,0E0,0E0,0E0,0E0,0E0,0E0,0E0,0E0,0E0,0E0,0E0,0E0,0E0,0E0,0E0,0E0,0E0],"parents":[2147483647,0,0,1,1,2,2,3,3,4,4,6,6,7,7,8,8,10,10,13,13,14,14,15,15,16,16,17,17,18,18,19,19,20,20,21,21,24,24,25,25,26,26,27,27,28,28,31,31,32,32,35,35,36,36,37,37,40,40,41,41,43,43,44,44],"right_children":[2,4,6,8,10,-1,12,14,16,-1,18,-1,-1,20,22,24,26,28,30,32,34,36,-1,-1,38,40,42,44,46,-1,-1,48,50,-1,-1,52,54,56,-1,-1,58,60,-1,62,64,-1,-1,-1,-1,-1,-1,-1,-1,-1,-1,-1,-1,-1,-1,-1,-1,-1,-1,-1,-1],"split_conditions":[5.6E1,1E0,3E0,1E0,1E0,2.1309902E-1,7E1,1E0,1E0,2.1274792E-1,1E0,-2.3093984E-1,2.1175246E-1,1E0,1E0,2E1,3.8E1,2E0,1E0,1E0,4.6E1,1E0,-2.1242599E-1,-8.759762E-2,2.9E1,1E0,2E0,1E0,3.9E1,-2.1750128E-1,2.0133589E-1,2.6E1,2E0,-2.3764196E-1,-1.4164446E-2,3.4E1,2E0,1E0,2.1829958E-1,2.0945178E-1,3.3E1,3E0,-1.8114068E-1,2.6E1,1E0,3.6167476E-1,2.6152527E-1,8.366334E-2,2.0042789E-1,-9.899917E-3,-2.3663051E-1,-6.946783E-2,1.4317183E-1,-1.6439058E-1,-2.27269E-1,1.6204321E-1,2.7678695E-1,-1.498111E-1,-2.495834E-2,1.7913093E-1,-1.9969897E-1,-1.1729002E-1,1.4376009E-1,-1.0442822E-1,-1.985118E-1],"split_indices":[0,17,16,2,9,0,0,20,3,0,15,0,0,15,15,0,0,3,12,16,0,16,0,0,0,9,15,3,0,0,0,0,16,0,0,0,16,20,0,0,0,16,0,0,2,0,0,0,0,0,0,0,0,0,0,0,0,0,0,0,0,0,0,0,0],"split_type":[0,0,0,0,0,0,0,0,0,0,0,0,0,0,0,0,0,0,0,0,0,0,0,0,0,0,0,0,0,0,0,0,0,0,0,0,0,0,0,0,0,0,0,0,0,0,0,0,0,0,0,0,0,0,0,0,0,0,0,0,0,0,0,0,0],"sum_hessian":[3.7606704E3,3.1931248E3,5.675455E2,1.5347263E3,1.6583986E3,4.738334E2,9.371208E1,7.6945593E2,7.652704E2,4.2179543E1,1.616219E3,2.9309183E1,6.440289E1,1.624324E2,6.0702356E2,3.1863754E2,4.4663284E2,1.3566104E3,2.5960855E2,1.554683E2,6.9640927E0,5.0131015E2,1.057134E2,2.3356988E0,3.1630182E2,2.0234424E2,2.4428862E2,1.2755319E3,8.107859E1,2.57916E2,1.6925704E0,1.4469081E2,1.0777503E1,5.6397233E0,1.3243694E0,3.8130258E2,1.2000756E2,6.0210903E1,2.5609094E2,1.2987816E1,1.8935641E2,2.4189218E2,2.3964279E0,2.1535744E2,1.0601743E3,2.4320492E1,5.67581E1,2.269195E1,1.21998856E2,5.557305E0,5.2201977E0,2.8849872E2,9.280388E1,4.6850304E1,7.315726E1,5.4314137E0,5.477949E1,1.1164863E2,7.770779E1,2.4018951E2,1.7026755E0,1.2418487E2,9.117257E1,6.8189417E2,3.7828024E2],"tree_param":{"num_deleted":"0","num_feature":"21","num_nodes":"65","size_leaf_vector":"1"}},{"base_weights":[4.497568E-3,-2.8619376E-1,8.8068753E-1,-3.8862967E-1,1.092227E0,3.8279492E-2,1.0612515E0,7.040951E-1,-4.9216938E-1,5.4907984E-1,2.0556065E-1,5.4787624E-1,-4.6848845E-1,2.0310159E-1,7.5178695E-1,7.6990426E-1,-9.3303823E-1,-3.9456022E-1,-2.1503218E-1,2.0699205E-1,-2.1396267E-1,6.164053E-1,-8.582431E-1,-5.6452286E-1,1.9471508E-1,5.117472E-1,2.0142677E-1,8.555606E-1,-4.3114677E-1,-2.296553E-1,1.9069491E-1,-2.5515684E-1,-1.1374829E0,6.7916375E-1,-8.888077E-1,-1.9383845E-1,-2.96997E-2,-4.1264275E-1,-2.134932E-1,1.1709368E0,1.0866516E-1,-9.391384E-1,8.934121E-1,-8.943362E-1,5.9676427E-1,-3.9819077E-1,1.4350232E0,-1.1712365E0,2.2312053E-1,5.1416016E-1,1.0456831E0,-2.0599943E-1,-4.5375023E-2,-2.4738096E-1,-2.0902286E-1,2.2189304E-1,8.4916663E-1,-7.086922E-2,9.8835856E-1,-2.4165952E-1,-3.6243126E-2,1.3520987E-1,2.1283367E-1,-2.0520298E-1,1.2102137E-1,1.4370884E-1,2.7663808E-2,-8.2705915E-2,2.5562137E-1,3.014507E-1,2.3553108E-1,-2.0860624E-1,-1.3521208E-1,1.654566E-1,5.1133916E-2,2.0639192E-1,-2.867698E-2,-6.975211E-2,2.1961722E-1,-1.3519931E-3,2.2023778E-1,-5.893643E-2,1.4334793E-1,2.4348053E-1,1.3298574E-1],"categories":[],"categories_nodes":[],"categories_segments":[],"categories_sizes":[],"default_left":[0,0,0,0,0,0,0,0,0,0,0,0,0,0,0,0,0,0,0,0,0,0,0,0,0,0,0,0,0,0,0,0,0,0,0,0,0,0,0,0,0,0,0,0,0,0,0,0,0,0,0,0,0,0,0,0,0,0,0,0,0,0,0,0,0,0,0,0,0,0,0,0,0,0,0,0,0,0,0,0,0,0,0,0,0],"id":7,"left_children":[1,3,5,7,9,11,13,15,17,19,-1,21,23,-1,25,27,29,31,-1,-1,-1,33,35,37,-1,39,-1,41,43,-1,-1,45,47,49,51,-1,-1,53,-1,55,57,59,61,63,65,67,69,71,-1,73,75,-1,-1,77,-1,-1,79,81,83,-1,-1,-1,-1,-1,-1,-1,-1,-1,-1,-1,-1,-1,-1,-1,-1,-1,-1,-1,-1,-1,-1,-1,-1,-1,-1],"loss_changes":[8.79032E2,3.6608353E2,1.3076105E2,2.7308908E2,6.2497864E0,3.939882E1,1.8031311E1,2.279908E1,1.5474329E2,2.267084E1,0E0,7.538458E0,1.1754198E1,0E0,1.3784798E1,2.083648E1,6.5495577E0,2.0095474E2,0E0,0E0,0E0,7.1118717E0,5.2679753E-1,6.8263016E0,0E0,2.500728E1,0E0,1.309436E1,6.7115545E0,0E0,0E0,3.9555048E2,2.5376953E1,4.023651E0,4.1390538E-1,0E0,0E0,7.3594904E0,0E0,4.9958038E-1,9.339803E0,1.1563385E0,7.038147E0,4.2758107E0,3.7103617E-1,1.8920052E2,2.7209778E0,2.5125122E-1,0E0,4.5358715E0,3.1184006E0,0E0,0E0,1.0830931E1,0E0,0E0,2.8163533E0,1.1444291E1,5.1011944E-1,0E0,0E0,0E0,0E0,0E0,0E0,0E0,0E0,0E0,0E0,0E0,0E0,0E0,0E0,0E0,0E0,0E0,0E0,0E0,0E0,0E0,0E0,0E0,0E0,0E0,0E0],"parents":[2147483647,0,0,1,1,2,2,3,3,4,4,5,5,6,6,7,7,8,8,9,9,11,11,12,12,14,14,15,15,16,16,17,17,21,21,22,22,23,23,25,25,27,27,28,28,31,31,32,32,33,33,34,34,37,37,39,39,40,40,41,41,42,42,43,43,44,44,45,45,46,46,47,47,49,49,50,50,53,53,56,56,57,57,58,58],"right_children":[2,4,6,8,10,12,14,16,18,20,-1,22,24,-1,26,28,30,32,-1,-1,-1,34,36,38,-1,40,-1,42,44,-1,-1,46,48,50,52,-1,-1,54,-1,56,58,60,62,64,66,68,70,72,-1,74,76,-1,-1,78,-1,-1,80,82,84,-1,-1,-1,-1,-1,-1,-1,-1,-1,-1,-1,-1,-1,-1,-1,-1,-1,-1,-1,-1,-1,-1,-1,-1,-1,-1],"split_conditions":[2.1E1,5.9E1,1E0,2E0,6.3E1,6E0,5E0,1E0,2E0,3E0,2.0556065E-1,1E0,7E1,2.0310159E-1,5.6E1,1E0,1E0,1E0,-2.1503218E-1,2.0699205E-1,-2.1396267E-1,2E0,5.4E1,1.5E1,1.9471508E-1,1E0,2.0142677E-1,9E0,1.5E1,-2.296553E-1,1.9069491E-1,2E0,1E0,4.4E1,5.8E1,-1.9383845E-1,-2.96997E-2,1E0,-2.134932E-1,1.1E1,2.8E1,8E0,2E0,1.7021276E-1,4.9E1,4.2E1,3.8E1,5E1,2.2312053E-1,2E0,2.0833334E-2,-2.0599943E-1,-4.5375023E-2,2E0,-2.0902286E-1,2.2189304E-1,2.0833334E-2,2E0,4.6E1,-2.4165952E-1,-3.6243126E-2,1.3520987E-1,2.1283367E-1,-2.0520298E-1,1.2102137E-1,1.4370884E-1,2.7663808E-2,-8.2705915E-2,2.5562137E-1,3.014507E-1,2.3553108E-1,-2.0860624E-1,-1.3521208E-1,1.654566E-1,5.1133916E-2,2.0639192E-1,-2.867698E-2,-6.975211E-2,2.1961722E-1,-1.3519931E-3,2.2023778E-1,-5.893643E-2,1.4334793E-1,2.4348053E-1,1.3298574E-1],"split_indices":[1,0,2,19,0,19,19,15,16,16,0,15,0,0,0,16,12,15,0,0,0,16,0,19,0,3,0,1,1,0,0,3,12,0,0,0,0,15,0,19,1,1,3,14,0,0,0,0,0,19,14,0,0,3,0,0,14,3,0,0,0,0,0,0,0,0,0,0,0,0,0,0,0,0,0,0,0,0,0,0,0,0,0,0,0],"split_type":[0,0,0,0,0,0,0,0,0,0,0,0,0,0,0,0,0,0,0,0,0,0,0,0,0,0,0,0,0,0,0,0,0,0,0,0,0,0,0,0,0,0,0,0,0,0,0,0,0,0,0,0,0,0,0,0,0,0,0,0,0,0,0,0,0,0,0,0,0,0,0,0,0,0,0,0,0,0,0,0,0,0,0,0,0],"sum_hessian":[3.4504436E3,2.5910757E3,8.5936786E2,2.4121074E3,1.7896828E2,1.5177147E2,7.075964E2,2.0857462E2,2.203533E3,1.998743E1,1.5898085E2,7.565875E1,7.611271E1,5.5588995E2,1.5170644E2,2.0071652E2,7.858093E0,1.9410746E3,2.624583E2,1.48817E1,5.1057305E0,7.235536E1,3.3033857E0,7.195484E1,4.1578693E0,9.3910446E1,5.7795986E1,1.874615E2,1.3255029E1,6.7780337E0,1.080059E0,1.6348428E3,3.0623172E2,6.966845E1,2.6869142E0,2.2931995E0,1.0101862E0,5.8667473E1,1.3287371E1,3.5347637E1,5.8562813E1,3.6768146E0,1.8378468E2,9.173254E0,4.0817747E0,1.5075662E3,1.2727661E2,3.0217667E2,4.0550485E0,4.869857E1,2.096988E1,1.6462559E0,1.0406585E0,4.868658E1,9.980889E0,2.7382908E1,7.9647274E0,4.8939278E1,9.623532E0,2.1175542E0,1.5592605E0,1.2970772E2,5.4076973E1,7.9541125E0,1.219141E0,2.5255544E0,1.5562203E0,1.4540192E3,5.354705E1,3.4966793E1,9.230982E1,2.978555E2,4.321161E0,1.6628962E1,3.206961E1,1.9116493E1,1.8533863E0,4.459872E1,4.087862E0,2.6245904E0,5.340137E0,3.7912018E1,1.102726E1,2.962778E0,6.660754E0],"tree_param":{"num_deleted":"0","num_feature":"21","num_nodes":"85","size_leaf_vector":"1"}},{"base_weights":[1.1003511E-2,-1.4273721E-1,1.0055144E0,2.1737476E-1,-4.72534E-1,1.99328E-1,3.9022747E-1,-1.6618037E-1,6.258522E-1,-3.391529E-1,-1.0018648E0,-2.1245252E-1,1.9922489E-1,2.0650356E-1,-3.16423E-1,1.1935596E0,2.5385135E-1,-1.746451E-1,-1.1365057E0,2.5440884E-1,-1.0294745E0,-1.8877701E-1,-1.1070462E0,-7.1242556E-2,1.2083229E0,-3.6127234E-1,8.3863246E-1,-3.0616656E-1,1.3575461E0,-2.0413072E-1,1.705286E-1,-8.361572E-1,-2.0888692E-1,1.5721453E-2,-1.0004961E0,2.6504493E-1,-2.0406194E-1,1.3763793E0,2.0361304E-1,1.9768426E-1,-4.4935966E-1,3.3704305E-1,9.360848E-1,-1.1089365E-2,-6.869811E-1,2.6909754E-1,2.2640117E-1,-9.7916853E-1,6.433202E-1,-4.9679574E-2,1.4053918E-1,-1.3582744E-1,-2.0884828E-1,1.4574273E-1,2.5219753E-1,-1.3637349E-1,-2.3013555E-2,2.9432261E-2,1.9748358E-1,1.6985425E-1,-1.20166056E-1,-3.2346126E-2,1.949148E-1,1.1456086E-1,-1.7442675E-1,-1.8951492E-1,-1.4717299E-1,3.4171775E-2,2.9299715E-1],"categories":[],"categories_nodes":[],"categories_segments":[],"categories_sizes":[],"default_left":[0,0,0,0,0,0,0,0,0,0,0,0,0,0,0,0,0,0,0,0,0,0,0,0,0,0,0,0,0,0,0,0,0,0,0,0,0,0,0,0,0,0,0,0,0,0,0,0,0,0,0,0,0,0,0,0,0,0,0,0,0,0,0,0,0,0,0,0,0],"id":8,"left_children":[1,3,5,7,9,-1,11,13,15,17,19,-1,-1,-1,21,23,25,27,29,-1,31,33,35,-1,37,39,41,43,45,-1,-1,47,-1,49,51,-1,-1,53,-1,-1,55,57,59,61,63,-1,-1,65,67,-1,-1,-1,-1,-1,-1,-1,-1,-1,-1,-1,-1,-1,-1,-1,-1,-1,-1,-1,-1],"loss_changes":[4.841008E2,3.257256E2,3.0687653E1,2.0546677E2,1.0093408E2,0E0,8.083313E1,1.3537892E2,1.3399168E2,1.4998088E2,1.9951752E1,0E0,0E0,0E0,6.1295532E1,6.110718E0,1.3830421E2,1.9136565E2,6.3505096E0,0E0,7.7746277E0,8.700935E1,1.0234787E1,0E0,1.8979492E0,2.4573349E1,9.506638E0,9.822255E1,2.0289612E-1,0E0,0E0,2.6704536E1,0E0,9.636406E1,4.023712E0,0E0,0E0,1.1475067E0,0E0,0E0,1.8058311E1,4.267185E0,5.9931335E0,9.379631E1,1.5104538E2,0E0,0E0,1.1715622E0,4.9914207E0,0E0,0E0,0E0,0E0,0E0,0E0,0E0,0E0,0E0,0E0,0E0,0E0,0E0,0E0,0E0,0E0,0E0,0E0,0E0,0E0],"parents":[2147483647,0,0,1,1,2,2,3,3,4,4,6,6,7,7,8,8,9,9,10,10,14,14,15,15,16,16,17,17,18,18,20,20,21,21,22,22,24,24,25,25,26,26,27,27,28,28,31,31,33,33,34,34,37,37,40,40,41,41,42,42,43,43,44,44,47,47,48,48],"right_children":[2,4,6,8,10,-1,12,14,16,18,20,-1,-1,-1,22,24,26,28,30,-1,32,34,36,-1,38,40,42,44,46,-1,-1,48,-1,50,52,-1,-1,54,-1,-1,56,58,60,62,64,-1,-1,66,68,-1,-1,-1,-1,-1,-1,-1,-1,-1,-1,-1,-1,-1,-1,-1,-1,-1,-1,-1,-1],"split_conditions":[5.6E1,1E0,3E0,1E0,1E0,1.99328E-1,7E1,1E0,1E0,1E0,1E0,-2.1245252E-1,1.9922489E-1,2.0650356E-1,1E0,2E1,3.8E1,2E0,1E0,2.5440884E-1,2E0,1E0,2E0,-7.1242556E-2,3E1,1E0,4E1,1E0,3.9E1,-2.0413072E-1,1.705286E-1,4.3E1,-2.0888692E-1,3.4E1,2E0,2.6504493E-1,-2.0406194E-1,1E0,2.0361304E-1,1.9768426E-1,3.2E1,6.0606062E-2,2E0,3.4E1,1E0,2.6909754E-1,2.2640117E-1,3.6E1,5.1E1,-4.9679574E-2,1.4053918E-1,-1.3582744E-1,-2.0884828E-1,1.4574273E-1,2.5219753E-1,-1.3637349E-1,-2.3013555E-2,2.9432261E-2,1.9748358E-1,1.6985425E-1,-1.20166056E-1,-3.2346126E-2,1.949148E-1,1.1456086E-1,-1.7442675E-1,-1.8951492E-1,-1.4717299E-1,3.4171775E-2,2.9299715E-1],"split_indices":[0,17,16,2,16,0,0,9,3,15,3,0,0,0,15,0,0,3,12,0,16,16,3,0,0,9,0,2,0,0,0,0,0,0,16,0,0,20,0,0,0,14,16,0,3,0,0,0,0,0,0,0,0,0,0,0,0,0,0,0,0,0,0,0,0,0,0,0,0],"split_type":[0,0,0,0,0,0,0,0,0,0,0,0,0,0,0,0,0,0,0,0,0,0,0,0,0,0,0,0,0,0,0,0,0,0,0,0,0,0,0,0,0,0,0,0,0,0,0,0,0,0,0,0,0,0,0,0,0,0,0,0,0,0,0,0,0,0,0,0,0],"sum_hessian":[3.1654224E3,2.7418943E3,4.2352805E2,1.3107708E3,1.4311234E3,3.5494403E2,6.8584015E1,6.7612897E2,6.346418E2,1.1436078E3,2.8751572E2,2.1580082E1,4.7003933E1,6.8332535E1,6.077964E2,2.5088763E2,3.8375415E2,9.484167E2,1.9519106E2,2.9952943E0,2.8452045E2,5.237317E2,8.4064705E1,2.205093E0,2.4868254E2,1.8709863E2,1.9665552E2,8.7373395E2,7.468273E1,1.9403778E2,1.1532764E0,1.2463576E2,1.5988467E2,4.18649E2,1.0508271E2,1.1642392E0,8.290047E1,6.3404034E1,1.8527852E2,1.0277736E1,1.768209E2,3.228014E1,1.6437538E2,4.9251425E2,3.8121973E2,2.2783817E1,5.189892E1,1.1377243E2,1.0863324E1,3.033565E2,1.1529247E2,4.609031E1,5.8992397E1,5.3841934E0,5.801984E1,8.814186E1,8.867905E1,2.6845667E1,5.4344754E0,1.6236603E2,2.0093462E0,4.2696442E2,6.554983E1,6.9277115E1,3.119426E2,6.9667755E1,4.410468E1,7.8352127E0,3.0281117E0],"tree_param":{"num_deleted":"0","num_feature":"21","num_nodes":"69","size_leaf_vector":"1"}},{"base_weights":[7.298055E-3,5.8213586E-1,-3.2206842E-1,2.448464E-1,1.0144888E0,-4.231464E-1,1.0392653E0,1.9898342E-1,1.04201175E-1,4.1895384E-1,1.921001E-1,2.0592041E-1,-4.634485E-1,5.966218E-1,1.9472054E-1,2.4459909E-1,-5.263758E-1,5.6148404E-1,-8.637046E-1,-3.7441695E-1,-1.084922E0,1.9164573E-1,-8.9334047E-1,-8.03093E-2,4.9750578E-1,-1.1744411E0,-2.768462E-1,7.4786156E-1,1.2669457E-1,-2.2677037E-1,-5.828588E-2,-4.771961E-1,1.3152881E0,2.6387838E-1,-1.1098956E0,-5.7428464E-2,-2.0424634E-1,1.601037E-2,-9.870961E-1,1.8031122E-1,7.4905294E-1,-1.0209485E0,-2.9001758E-1,1.8309368E-1,-1.0297009E0,8.2002795E-1,-1.6846003E-1,-3.8494188E-1,7.129191E-1,-3.3810353E-1,-9.6456546E-1,2.652964E-1,2.1904977E-1,-1.9912647E-1,1.7783421E-1,-3.386734E-2,1.3844554E-1,-1.9442958E-1,1.0371479E-1,1.13252826E-1,-2.5199153E-2,2.0349173E-1,1.0142196E-1,-2.0547287E-1,-1.01873845E-1,7.1826845E-2,-2.267003E-1,-2.0014432E-1,-2.7477691E-2,1.1940209E-1,1.9755723E-1,9.512327E-2,-3.5753772E-1,5.8936357E-2,1.9231686E-1,-3.160198E-2,-1.4056565E-1,3.3693475E-1,-1.7586827E-1],"categories":[],"categories_nodes":[],"categories_segments":[],"categories_sizes":[],"default_left":[0,0,0,0,0,0,0,0,0,0,0,0,0,0,0,0,0,0,0,0,0,0,0,0,0,0,0,0,0,0,0,0,0,0,0,0,0,0,0,0,0,0,0,0,0,0,0,0,0,0,0,0,0,0,0,0,0,0,0,0,0,0,0,0,0,0,0,0,0,0,0,0,0,0,0,0,0,0,0],"id":9,"left_children":[1,3,5,7,9,11,13,-1,15,17,-1,-1,19,21,-1,23,25,27,29,31,33,-1,35,37,39,41,43,45,47,-1,-1,49,51,-1,53,-1,-1,55,57,59,61,63,-1,65,67,69,-1,71,73,75,77,-1,-1,-1,-1,-1,-1,-1,-1,-1,-1,-1,-1,-1,-1,-1,-1,-1,-1,-1,-1,-1,-1,-1,-1,-1,-1,-1,-1],"loss_changes":[5.4927295E2,1.5400616E2,2.5395845E2,7.324495E1,1.8732635E1,1.0984421E2,3.0488281E0,0E0,4.5422535E1,9.052762E0,0E0,0E0,9.2508545E1,1.1762954E1,0E0,3.4481476E1,1.498291E1,3.516367E0,9.435003E-1,2.5476974E2,1.4125427E1,0E0,4.527123E-1,1.6070808E1,1.8768929E1,1.1656303E0,2.361839E1,4.0600853E0,4.199394E0,0E0,0E0,9.354385E1,4.8539734E-1,0E0,6.0684204E0,0E0,0E0,2.6429392E1,3.2846985E0,1.5526627E1,9.016541E0,9.916878E-1,0E0,1.399819E1,2.1626148E0,9.7833824E-1,0E0,1.1757147E1,7.7483726E-1,7.8115265E1,2.4457031E1,0E0,0E0,0E0,0E0,0E0,0E0,0E0,0E0,0E0,0E0,0E0,0E0,0E0,0E0,0E0,0E0,0E0,0E0,0E0,0E0,0E0,0E0,0E0,0E0,0E0,0E0,0E0,0E0],"parents":[2147483647,0,0,1,1,2,2,3,3,4,4,5,5,6,6,8,8,9,9,12,12,13,13,15,15,16,16,17,17,18,18,19,19,20,20,22,22,23,23,24,24,25,25,26,26,27,27,28,28,31,31,32,32,34,34,37,37,38,38,39,39,40,40,41,41,43,43,44,44,45,45,47,47,48,48,49,49,50,50],"right_children":[2,4,6,8,10,12,14,-1,16,18,-1,-1,20,22,-1,24,26,28,30,32,34,-1,36,38,40,42,44,46,48,-1,-1,50,52,-1,54,-1,-1,56,58,60,62,64,-1,66,68,70,-1,72,74,76,78,-1,-1,-1,-1,-1,-1,-1,-1,-1,-1,-1,-1,-1,-1,-1,-1,-1,-1,-1,-1,-1,-1,-1,-1,-1,-1,-1,-1],"split_conditions":[5E0,2.1E1,6.1E1,1E0,1E0,1E0,6.6E1,1.9898342E-1,1E0,1E0,1.921001E-1,2.0592041E-1,1E0,2E0,1.9472054E-1,1.4E1,3E0,4E0,1E0,2E0,2E0,1.9164573E-1,2.1E1,2E0,1E0,1.8E1,4E0,1.6129032E-1,4E1,-2.2677037E-1,-5.828588E-2,1E0,3.8E1,2.6387838E-1,1E0,-5.7428464E-2,-2.0424634E-1,3.7E1,5.5E1,2E0,3.1E1,3.5E1,-2.9001758E-1,1E0,4.7E1,3E0,-1.6846003E-1,1E0,2.5E1,1.5E1,1E0,2.652964E-1,2.1904977E-1,-1.9912647E-1,1.7783421E-1,-3.386734E-2,1.3844554E-1,-1.9442958E-1,1.0371479E-1,1.13252826E-1,-2.5199153E-2,2.0349173E-1,1.0142196E-1,-2.0547287E-1,-1.01873845E-1,7.1826845E-2,-2.267003E-1,-2.0014432E-1,-2.7477691E-2,1.1940209E-1,1.9755723E-1,9.512327E-2,-3.5753772E-1,5.8936357E-2,1.9231686E-1,-3.160198E-2,-1.4056565E-1,3.3693475E-1,-1.7586827E-1],"split_indices":[19,1,0,9,2,9,0,0,18,18,0,0,15,16,0,1,19,19,7,3,3,0,1,16,2,1,19,14,0,0,0,16,0,0,12,0,0,0,0,19,0,0,0,17,0,19,0,3,1,19,3,0,0,0,0,0,0,0,0,0,0,0,0,0,0,0,0,0,0,0,0,0,0,0,0,0,0,0,0],"split_type":[0,0,0,0,0,0,0,0,0,0,0,0,0,0,0,0,0,0,0,0,0,0,0,0,0,0,0,0,0,0,0,0,0,0,0,0,0,0,0,0,0,0,0,0,0,0,0,0,0,0,0,0,0,0,0,0,0,0,0,0,0,0,0,0,0,0,0,0,0,0,0,0,0,0,0,0,0,0,0],"sum_hessian":[2.9003154E3,1.0563616E3,1.8439537E3,5.9376917E2,4.6259244E2,1.7167593E3,1.2719451E2,8.167647E1,5.1209265E2,4.806973E1,4.145227E2,4.2318424E1,1.6744408E3,1.53872795E1,1.11807236E2,4.1903726E2,9.305541E1,4.3463264E1,4.6064625E0,1.4651774E3,2.092635E2,1.1697447E1,3.689833E0,1.8352846E2,2.355088E2,2.546022E1,6.759519E1,3.0222023E1,1.3241241E1,2.2840328E0,2.3224297E0,1.3814341E3,8.374328E1,1.7883761E0,2.0747513E2,1.4302372E0,2.2595959E0,1.6625774E2,1.7270721E1,1.04464165E2,1.3104465E2,2.005482E1,5.4054003E0,4.2146515E1,2.5448677E1,2.9186525E1,1.0354981E0,7.1428905E0,6.098351E0,1.075239E3,3.0619507E2,2.362308E1,6.0120205E1,2.0641025E2,1.0648887E0,1.3107452E2,3.5183216E1,1.6261984E1,1.0087382E0,4.2982853E1,6.148131E1,3.9687263E1,9.1357376E1,1.4848901E1,5.205919E0,3.6839733E1,5.3067827E0,2.2764E1,2.6846771E0,2.0332508E1,8.854018E0,4.734502E0,2.4083886E0,3.3831875E0,2.7151635E0,7.9574084E2,2.794981E2,2.6024315E0,3.0359265E2],"tree_param":{"num_deleted":"0","num_feature":"21","num_nodes":"79","size_leaf_vector":"1"}},{"base_weights":[4.6665105E-3,-1.9623192E-1,8.1041586E-1,-2.7033103E-1,1.0156506E0,3.0976051E-2,9.8663944E-1,1.9746397E-1,-3.3384833E-1,5.607436E-1,1.9296654E-1,3.0831018E-1,-6.466534E-1,1.8911573E-1,7.0732856E-1,-2.4659425E-1,-1.0623467E0,1.9179939E-1,-1.9376737E-1,3.7452886E-1,-2.5807077E-1,-4.691692E-1,-2.043899E-1,4.905226E-1,1.8444808E-1,-3.4816614E-1,2.2035882E-1,-1.953497E-1,1.9890817E-1,4.5967838E-1,-1.6169557E-1,-5.883705E-1,2.8105754E-1,1.167872E0,2.3034394E-1,-2.1362597E-1,-8.895279E-1,3.3996737E-1,1.956556E-1,-6.8827486E-1,1.1866929E-1,1.6759805E-1,-1.4532547E-1,2.3747937E-1,8.878922E-2,-5.943695E-1,8.3116335E-1,-4.773934E-2,2.1840434E-1,2.7258432E-1,-1.623646E-1,1.1899834E-1,1.3904634E-2,-1.5667828E-2,-1.7142387E-1,-1.3465413E-1,1.6392751E-1,-1.5289392E-1,1.9765803E-1,1.5901539E-1,-5.3304516E-2],"categories":[],"categories_nodes":[],"categories_segments":[],"categories_sizes":[],"default_left":[0,0,0,0,0,0,0,0,0,0,0,0,0,0,0,0,0,0,0,0,0,0,0,0,0,0,0,0,0,0,0,0,0,0,0,0,0,0,0,0,0,0,0,0,0,0,0,0,0,0,0,0,0,0,0,0,0,0,0,0,0],"id":10,"left_children":[1,3,5,7,9,11,13,-1,15,17,-1,19,21,-1,23,25,27,-1,-1,29,-1,31,-1,33,-1,35,-1,-1,-1,37,-1,39,41,43,45,47,49,51,-1,53,-1,-1,-1,-1,55,57,59,-1,-1,-1,-1,-1,-1,-1,-1,-1,-1,-1,-1,-1,-1],"loss_changes":[4.3214056E2,1.9199579E2,7.316785E1,1.7715227E2,3.8108444E0,1.861897E1,9.36319E0,0E0,1.2231688E2,1.5720062E1,0E0,8.421277E0,2.3681688E0,0E0,6.8327904E0,2.6037402E2,1.8050232E1,0E0,0E0,7.6181946E0,0E0,2.0305395E0,0E0,1.0434298E1,0E0,1.1725386E2,0E0,0E0,0E0,4.787073E0,0E0,2.5805187E0,2.7036402E0,2.9985867E0,2.1854496E1,1.0371167E2,2.0702759E1,4.7060328E0,0E0,2.950161E0,0E0,0E0,0E0,0E0,2.1791642E0,8.912725E0,1.9904289E0,0E0,0E0,0E0,0E0,0E0,0E0,0E0,0E0,0E0,0E0,0E0,0E0,0E0,0E0],"parents":[2147483647,0,0,1,1,2,2,3,3,4,4,5,5,6,6,8,8,9,9,11,11,12,12,14,14,15,15,16,16,19,19,21,21,23,23,25,25,29,29,31,31,32,32,33,33,34,34,35,35,36,36,37,37,39,39,44,44,45,45,46,46],"right_children":[2,4,6,8,10,12,14,-1,16,18,-1,20,22,-1,24,26,28,-1,-1,30,-1,32,-1,34,-1,36,-1,-1,-1,38,-1,40,42,44,46,48,50,52,-1,54,-1,-1,-1,-1,56,58,60,-1,-1,-1,-1,-1,-1,-1,-1,-1,-1,-1,-1,-1,-1],"split_conditions":[2.2E1,5.9E1,1E0,1E0,6.4E1,8E0,5E0,1.9746397E-1,1E0,3E0,1.9296654E-1,1.8421052E-1,1.5E1,1.8911573E-1,2.8E1,2E0,1E0,1.9179939E-1,-1.9376737E-1,1E0,-2.5807077E-1,2.9E1,-2.043899E-1,3.9E1,1.8444808E-1,1E0,2.2035882E-1,-1.953497E-1,1.9890817E-1,2E0,-1.6169557E-1,1E0,5E1,1.2E1,4.6E1,4.1E1,1E0,1E0,1.956556E-1,1E0,1.1866929E-1,1.6759805E-1,-1.4532547E-1,2.3747937E-1,4.1666668E-2,1E0,2E0,-4.773934E-2,2.1840434E-1,2.7258432E-1,-1.623646E-1,1.1899834E-1,1.3904634E-2,-1.5667828E-2,-1.7142387E-1,-1.3465413E-1,1.6392751E-1,-1.5289392E-1,1.9765803E-1,1.5901539E-1,-5.3304516E-2],"split_indices":[1,0,2,9,0,19,19,0,15,16,0,14,19,0,1,3,12,0,0,15,0,1,0,0,0,16,0,0,0,3,0,13,0,19,0,0,3,3,0,3,0,0,0,0,14,13,15,0,0,0,0,0,0,0,0,0,0,0,0,0,0],"split_type":[0,0,0,0,0,0,0,0,0,0,0,0,0,0,0,0,0,0,0,0,0,0,0,0,0,0,0,0,0,0,0,0,0,0,0,0,0,0,0,0,0,0,0,0,0,0,0,0,0,0,0,0,0,0,0,0,0,0,0,0,0],"sum_hessian":[2.6688271E3,2.1364446E3,5.3238257E2,2.013632E3,1.2281275E2,9.825719E1,4.3412537E2,8.809163E1,1.9255403E3,1.7322403E1,1.0549035E2,6.987567E1,2.8381517E1,3.36958E2,9.716735E1,1.7200562E3,2.0548419E2,1.3278132E1,4.04427E0,6.7647835E1,2.2278368E0,2.157487E1,6.8066497E0,5.9418755E1,3.7748596E1,1.6105004E3,1.0955577E2,2.0206696E2,3.4172287E0,6.368667E1,3.961167E0,1.8691038E1,2.8838303E0,1.6105337E1,4.3313416E1,1.2903691E3,3.2013116E2,5.4208103E1,9.478564E0,1.7481842E1,1.2091955E0,1.8337961E0,1.0500343E0,1.3818903E1,2.2864342E0,1.825691E1,2.5056505E1,1.2429248E3,4.744438E1,3.1368985E0,3.169943E2,2.3655596E1,3.0552507E1,5.704681E0,1.1777162E1,1.1525108E0,1.1339235E0,1.5954503E1,2.3024077E0,2.3766083E1,1.290422E0],"tree_param":{"num_deleted":"0","num_feature":"21","num_nodes":"61","size_leaf_vector":"1"}},{"base_weights":[1.3739275E-2,5.176659E-1,-2.6420972E-1,2.3521245E-1,9.5215154E-1,-3.3966064E-1,1.0259384E0,1.9124258E-1,1.2978283E-1,3.3756503E-1,1.039289E0,-2.6007465E-1,-1.0432152E0,5.4834366E-1,1.8809353E-1,-1.1074551E-1,3.9329496E-1,4.28735E-1,-2.777496E-1,1.8535066E-1,6.88777E-1,-3.4266335E-1,2.1192957E-1,2.568507E-1,-1.9028808E-1,1.7655316E-1,-1.4264305E-1,-1.6699989E-1,1.3964106E0,4.493958E-2,6.6792554E-1,3.2657676E-3,6.7129636E-1,-1.03301756E-1,1.7555712E-1,-2.5369507E-1,-1.0832233E0,-8.314098E-2,-9.4660085E-1,1.6953288E0,6.664721E-1,5.009582E-1,-1.7592008E-1,1.0752633E0,5.2296484E-1,4.7717127E-1,-2.898734E-1,1.9652489E-1,3.19899E-1,-1.0883855E-1,-7.070823E-1,-1.9335617E-1,-5.487823E-1,-3.344655E-2,2.0687257E-1,-1.9641913E-1,1.649305E-1,3.3626294E-1,1.6302945E-1,-8.067805E-2,2.9603985E-1,3.057444E-2,1.5999377E-1,-2.2994189E-1,3.127744E-2,5.737409E-2,2.0069706E-1,4.5236528E-2,1.7690329E-1,1.2993683E-2,1.0548742E-1,-2.3357564E-1,-4.7227894E-3,-3.086068E-1,9.346552E-2,1.0945333E-1,-3.5072904E-2,-1.3075325E-1,3.6316037E-1,-1.4519429E-1,-1.9850483E-2],"categories":[],"categories_nodes":[],"categories_segments":[],"categories_sizes":[],"default_left":[0,0,0,0,0,0,0,0,0,0,0,0,0,0,0,0,0,0,0,0,0,0,0,0,0,0,0,0,0,0,0,0,0,0,0,0,0,0,0,0,0,0,0,0,0,0,0,0,0,0,0,0,0,0,0,0,0,0,0,0,0,0,0,0,0,0,0,0,0,0,0,0,0,0,0,0,0,0,0,0,0],"id":11,"left_children":[1,3,5,7,9,11,13,-1,15,17,19,21,23,25,-1,27,29,31,-1,-1,33,35,-1,-1,-1,-1,-1,37,39,41,43,45,47,-1,-1,49,51,53,55,57,59,61,63,65,67,69,71,-1,73,75,77,-1,79,-1,-1,-1,-1,-1,-1,-1,-1,-1,-1,-1,-1,-1,-1,-1,-1,-1,-1,-1,-1,-1,-1,-1,-1,-1,-1,-1,-1],"loss_changes":[3.4636444E2,1.0779285E2,1.5528314E2,4.7341896E1,1.8400726E1,8.42198E1,1.223793E0,0E0,3.0088762E1,7.8287354E0,3.2363892E-1,1.6280501E2,1.1912308E1,4.411379E0,0E0,2.1148228E1,2.165633E1,4.322865E0,0E0,0E0,2.542368E0,8.429912E1,0E0,0E0,0E0,0E0,0E0,1.5643663E1,1.5101948E0,1.0133923E1,7.2531548E0,2.2237225E0,3.9538565E0,0E0,0E0,7.5118355E1,2.7149963E-1,2.8663921E1,7.4246807E0,2.5955963E-1,3.969266E0,4.2636223E0,2.6871338E1,1.244873E0,1.1867176E1,2.7302206E-1,2.6601787E0,0E0,6.907919E0,5.6047516E1,2.3579529E1,0E0,2.6509053E-1,0E0,0E0,0E0,0E0,0E0,0E0,0E0,0E0,0E0,0E0,0E0,0E0,0E0,0E0,0E0,0E0,0E0,0E0,0E0,0E0,0E0,0E0,0E0,0E0,0E0,0E0,0E0,0E0],"parents":[2147483647,0,0,1,1,2,2,3,3,4,4,5,5,6,6,8,8,9,9,10,10,11,11,12,12,13,13,15,15,16,16,17,17,20,20,21,21,27,27,28,28,29,29,30,30,31,31,32,32,35,35,36,36,37,37,38,38,39,39,40,40,41,41,42,42,43,43,44,44,45,45,46,46,48,48,49,49,50,50,52,52],"right_children":[2,4,6,8,10,12,14,-1,16,18,20,22,24,26,-1,28,30,32,-1,-1,34,36,-1,-1,-1,-1,-1,38,40,42,44,46,48,-1,-1,50,52,54,56,58,60,62,64,66,68,70,72,-1,74,76,78,-1,80,-1,-1,-1,-1,-1,-1,-1,-1,-1,-1,-1,-1,-1,-1,-1,-1,-1,-1,-1,-1,-1,-1,-1,-1,-1,-1,-1,-1],"split_conditions":[5E0,2.1E1,6.3E1,1E0,1E0,1E0,6.6E1,1.9124258E-1,1.5E1,1E0,2E0,2E0,2E0,2E0,1.8809353E-1,1E0,1E0,1E0,-2.777496E-1,1.8535066E-1,8.1E1,2E0,2.1192957E-1,2.568507E-1,-1.9028808E-1,1.7655316E-1,-1.4264305E-1,1E0,1.3E1,2E0,1E0,1E0,2E0,-1.03301756E-1,1.7555712E-1,1.5E1,1E0,2E0,4.6E1,3E0,1.4E1,1E0,3E0,1E0,4.2E1,3.1E1,3.7E1,1.9652489E-1,3E0,8E0,1E0,-1.9335617E-1,4.8E1,-3.344655E-2,2.0687257E-1,-1.9641913E-1,1.649305E-1,3.3626294E-1,1.6302945E-1,-8.067805E-2,2.9603985E-1,3.057444E-2,1.5999377E-1,-2.2994189E-1,3.127744E-2,5.737409E-2,2.0069706E-1,4.5236528E-2,1.7690329E-1,1.2993683E-2,1.0548742E-1,-2.3357564E-1,-4.7227894E-3,-3.086068E-1,9.346552E-2,1.0945333E-1,-3.5072904E-2,-1.3075325E-1,3.6316037E-1,-1.4519429E-1,-1.9850483E-2],"split_indices":[19,1,0,9,2,15,0,0,1,17,15,3,3,16,0,13,2,7,0,0,0,16,0,0,0,0,0,15,1,19,3,3,19,0,0,19,13,3,0,3,1,7,19,19,0,0,0,0,19,1,11,0,0,0,0,0,0,0,0,0,0,0,0,0,0,0,0,0,0,0,0,0,0,0,0,0,0,0,0,0,0],"split_type":[0,0,0,0,0,0,0,0,0,0,0,0,0,0,0,0,0,0,0,0,0,0,0,0,0,0,0,0,0,0,0,0,0,0,0,0,0,0,0,0,0,0,0,0,0,0,0,0,0,0,0,0,0,0,0,0,0,0,0,0,0,0,0,0,0,0,0,0,0,0,0,0,0,0,0,0,0,0,0,0,0],"sum_hessian":[2.4720833E3,8.7867975E2,1.5934036E3,5.32876E2,3.4580377E2,1.5056425E3,8.7761154E1,5.8826424E1,4.7404953E2,4.3181072E1,3.0262268E2,1.3531212E3,1.525213E2,6.373169E0,8.1387985E1,2.4795255E2,2.2609698E2,4.150084E1,1.6802348E0,2.9697345E2,5.6492367E0,1.280726E3,7.2395256E1,1.5705879E0,1.5095071E2,4.8687735E0,1.5043952E0,2.3937093E2,8.581628E0,9.9874115E1,1.2622288E2,1.5215284E1,2.6285553E1,1.0104908E0,4.638746E0,1.1438417E3,1.3688423E2,2.1651991E2,2.285101E1,5.715946E0,2.8656816E0,3.242436E1,6.744975E1,3.24609E1,9.376198E1,5.719977E0,9.495307E0,1.1338603E1,1.4946951E1,8.6724927E2,2.7659238E2,1.3472168E2,2.1625547E0,1.9998228E2,1.6537626E1,2.1196941E1,1.6540697E0,4.0872335E0,1.6287124E0,1.4549172E0,1.4107643E0,1.8135738E1,1.4288619E1,1.5878793E1,5.157096E1,2.4479506E0,3.001295E1,6.0313255E1,3.3448723E1,1.4353353E0,4.2846413E0,1.6131233E0,7.882184E0,1.096997E0,1.3849954E1,9.436561E1,7.7288367E2,2.738882E2,2.7041671E0,1.1221855E0,1.0403693E0],"tree_param":{"num_deleted":"0","num_feature":"21","num_nodes":"81","size_leaf_vector":"1"}},{"base_weights":[1.0260688E-2,-1.3731304E-1,7.9638684E-1,5.6507546E-2,-5.072244E-1,9.643811E-1,4.0896127E-1,1.9119774E-1,-1.3061059E-2,-5.5155706E-1,9.887713E-1,8.098925E-1,1.8187883E-1,2.6979432E-1,1.8532865E-1,-7.01847E-2,1.0148218E0,1.12513036E-1,-6.081582E-1,7.052942E-2,1.8390453E-1,6.52477E-1,1.8705621E-1,6.5629E-1,-2.1621955E-3,-7.3045616E-5,-1.0078899E0,6.444527E-1,1.879893E-1,-2.373042E-1,2.831217E0,-7.426368E-1,-3.7368092E-1,6.8247783E-1,-5.6711912E-2,2.0972417E-1,9.9340856E-1,2.0881177E-1,-6.578479E-1,-8.211232E-2,2.0136979E-1,-1.9122334E-1,1.8689854E-1,1.8199612E-1,-1.681071E-1,1.7752714E0,-3.6882693E-1,1.139806E-1,6.3672954E-1,-6.253977E-1,-9.562626E-1,5.3051546E-2,-6.7943925E-1,7.448831E-1,1.4309734E-1,3.521935E-1,-1.7201406E-1,2.4017495E-1,8.600448E-1,3.077956E-2,1.9443177E-1,-9.421185E-1,1.07844315E-1,-1.0994754E-3,-1.8804091E-1,6.6765785E-2,4.9682084E-1,-8.2902744E-2,3.6355364E-1,-9.3139954E-2,-1.7553672E-1,-1.731211E-1,1.16356805E-1,1.5768912E-1,-4.285746E-2,-1.2838578E-1,-8.274673E-3,1.5270653E-1,7.1495116E-2,-2.5492215E-1,1.5506293E-1,1.7268512E-1,5.4941513E-3,1.0308524E-1,1.8806818E-1,-2.5975756E-2,1.3565639E-1,-2.1382938E-1,-4.282345E-2],"categories":[],"categories_nodes":[],"categories_segments":[],"categories_sizes":[],"default_left":[0,0,0,0,0,0,0,0,0,0,0,0,0,0,0,0,0,0,0,0,0,0,0,0,0,0,0,0,0,0,0,0,0,0,0,0,0,0,0,0,0,0,0,0,0,0,0,0,0,0,0,0,0,0,0,0,0,0,0,0,0,0,0,0,0,0,0,0,0,0,0,0,0,0,0,0,0,0,0,0,0,0,0,0,0,0,0,0,0],"id":12,"left_children":[1,3,5,7,9,11,13,-1,15,17,19,21,-1,23,-1,25,27,29,31,-1,-1,33,-1,35,37,39,41,43,-1,45,47,49,51,53,-1,55,57,59,61,63,-1,-1,-1,-1,-1,65,67,-1,-1,69,71,73,75,77,79,81,-1,-1,83,85,-1,87,-1,-1,-1,-1,-1,-1,-1,-1,-1,-1,-1,-1,-1,-1,-1,-1,-1,-1,-1,-1,-1,-1,-1,-1,-1,-1,-1],"loss_changes":[2.6728638E2,1.3909093E2,2.3543762E1,9.048704E1,4.4451935E1,2.0639038E0,9.696554E0,0E0,7.004444E1,2.4385452E1,3.8596535E-1,2.5687828E0,0E0,9.614765E0,0E0,7.429323E1,7.7731323E-1,4.899092E1,1.8721054E1,0E0,0E0,1.4264851E0,0E0,5.6045704E0,7.5361066E0,9.801301E1,1.1836243E1,5.142872E0,0E0,1.2371141E1,8.833382E0,9.257935E0,2.852025E1,1.4616699E0,0E0,2.9509602E0,5.6801033E-1,6.498362E0,4.9995375E0,7.2859474E1,0E0,0E0,0E0,0E0,0E0,3.7064466E0,1.0699095E1,0E0,0E0,8.776619E0,4.521805E0,2.2643253E1,3.5643387E0,1.4475288E0,6.420825E0,3.029921E0,0E0,0E0,6.893625E-1,4.5642385E0,0E0,1.9121819E0,0E0,0E0,0E0,0E0,0E0,0E0,0E0,0E0,0E0,0E0,0E0,0E0,0E0,0E0,0E0,0E0,0E0,0E0,0E0,0E0,0E0,0E0,0E0,0E0,0E0,0E0,0E0],"parents":[2147483647,0,0,1,1,2,2,3,3,4,4,5,5,6,6,8,8,9,9,10,10,11,11,13,13,15,15,16,16,17,17,18,18,21,21,23,23,24,24,25,25,26,26,27,27,29,29,30,30,31,31,32,32,33,33,35,35,36,36,37,37,38,38,39,39,45,45,46,46,49,49,50,50,51,51,52,52,53,53,54,54,55,55,58,58,59,59,61,61],"right_children":[2,4,6,8,10,12,14,-1,16,18,20,22,-1,24,-1,26,28,30,32,-1,-1,34,-1,36,38,40,42,44,-1,46,48,50,52,54,-1,56,58,60,62,64,-1,-1,-1,-1,-1,66,68,-1,-1,70,72,74,76,78,80,82,-1,-1,84,86,-1,88,-1,-1,-1,-1,-1,-1,-1,-1,-1,-1,-1,-1,-1,-1,-1,-1,-1,-1,-1,-1,-1,-1,-1,-1,-1,-1,-1],"split_conditions":[2.3E1,1E1,5E0,1E0,6.2E1,2.7E1,7E1,1.9119774E-1,5.9E1,7E0,6.5E1,4.1666668E-2,1.8187883E-1,1E0,1.8532865E-1,1E0,6.2E1,2.7E1,1E0,7.052942E-2,1.8390453E-1,4E-2,1.8705621E-1,3.5E1,1E0,2E0,1E0,3E0,1.879893E-1,5E0,2.4E1,1.8E1,1.2E1,1E0,-5.6711912E-2,1.3E1,2.8E1,1E0,2.8E1,2E0,2.0136979E-1,-1.9122334E-1,1.8689854E-1,1.8199612E-1,-1.681071E-1,2.5E1,1E0,1.139806E-1,6.3672954E-1,1E0,1E0,1.2E1,2.7E1,4E0,3E0,2.4E1,-1.7201406E-1,2.4017495E-1,1E0,2.0833334E-2,1.9443177E-1,4.9E1,1.07844315E-1,-1.0994754E-3,-1.8804091E-1,6.6765785E-2,4.9682084E-1,-8.2902744E-2,3.6355364E-1,-9.3139954E-2,-1.7553672E-1,-1.731211E-1,1.16356805E-1,1.5768912E-1,-4.285746E-2,-1.2838578E-1,-8.274673E-3,1.5270653E-1,7.1495116E-2,-2.5492215E-1,1.5506293E-1,1.7268512E-1,5.4941513E-3,1.0308524E-1,1.8806818E-1,-2.5975756E-2,1.3565639E-1,-2.1382938E-1,-4.282345E-2],"split_indices":[1,19,19,9,0,1,0,0,0,1,0,14,0,3,0,15,0,19,18,0,0,14,0,0,18,3,12,16,0,1,0,19,1,18,0,19,1,13,1,16,0,0,0,0,0,0,13,0,0,16,11,19,19,19,19,1,0,0,7,14,0,0,0,0,0,0,0,0,0,0,0,0,0,0,0,0,0,0,0,0,0,0,0,0,0,0,0,0,0],"split_type":[0,0,0,0,0,0,0,0,0,0,0,0,0,0,0,0,0,0,0,0,0,0,0,0,0,0,0,0,0,0,0,0,0,0,0,0,0,0,0,0,0,0,0,0,0,0,0,0,0,0,0,0,0,0,0,0,0,0,0,0,0,0,0,0,0,0,0,0,0,0,0,0,0,0,0,0,0,0,0,0,0,0,0,0,0,0,0,0,0],"sum_hessian":[2.3031912E3,1.9394409E3,3.637501E2,1.2728484E3,6.6659265E2,2.5331647E2,1.10433624E2,8.0793846E1,1.1920544E3,6.476506E2,1.8942059E1,7.337319E1,1.7994327E2,9.106966E1,1.936397E1,1.1296453E3,6.2409187E1,5.0834927E1,5.968157E2,1.7024589E0,1.72396E1,4.5539158E1,2.7834032E1,3.7382854E1,5.36868E1,1.0514276E3,7.821767E1,7.4313645E0,5.497782E1,4.5360294E1,5.474632E0,3.7873868E2,2.1807698E2,4.429092E1,1.2482382E0,1.6358139E1,2.1024714E1,4.082183E1,1.2864969E1,9.809198E2,7.050781E1,7.582338E1,2.3942907E0,6.108389E0,1.3229756E0,2.4782844E0,4.2882008E1,1.5980284E0,3.8766034E0,2.4554251E2,1.3319615E2,9.1166756E1,1.26910225E2,3.956205E1,4.7288704E0,1.48437195E1,1.5144199E0,4.694446E0,1.6330269E1,3.434273E1,6.479097E0,1.0588784E1,2.2761858E0,9.106405E2,7.027935E1,1.2780278E0,1.2002566E0,4.151003E1,1.371979E0,1.9330838E2,5.2234135E1,1.3173392E2,1.4622333E0,2.3551836E1,6.761492E1,1.1853301E2,8.377212E0,2.908089E1,1.048116E1,1.3745148E0,3.3543556E0,4.7833877E0,1.0060332E1,7.474331E0,8.855937E0,2.7919048E1,6.423684E0,7.4871664E0,3.1016173E0],"tree_param":{"num_deleted":"0","num_feature":"21","num_nodes":"89","size_leaf_vector":"1"}},{"base_weights":[1.0739141E-2,4.4214714E-1,-2.1666321E-1,9.794984E-2,7.0087856E-1,-2.747975E-1,9.946386E-1,5.9943026E-1,-1.7407925E-1,4.3563274E-1,9.707118E-1,-2.0549223E-1,-1.0117674E0,5.397842E-1,1.8283708E-1,3.9874884E-1,1.9544923E-1,-9.7333413E-1,2.0163877E-2,1.0443035E0,-1.1945897E-2,7.8353095E-1,1.0309143E0,-2.7108642E-1,2.0494013E-1,2.3402934E-1,-1.8527864E-1,1.700114E-1,-1.1439264E-1,1.250257E-1,9.1300315E-1,-7.80188E-1,-1.1881554E0,2.0354643E-1,-8.879191E-1,1.1918364E-2,1.0597559E0,1.7797199E-1,-7.0915446E-2,8.326624E-1,-2.1464835E-1,1.0427194E0,7.2156185E-1,-1.967149E-1,-1.0422758E0,2.3712787E-1,-7.951612E-1,9.5843095E-1,-1.0618577E-2,-8.751011E-1,5.1913433E-2,-2.1833962E-1,-6.419552E-2,3.433002E-1,-9.6227664E-1,-1.7495778E-1,1.4858198E-1,9.486072E-1,2.0161599E-1,-1.2727426E-1,1.0754071E0,6.6365534E-1,1.8912452E-1,1.8704292E-1,7.025404E-1,-1.0975107E-1,1.7481804E-1,-2.552575E-1,8.372318E-1,-1.8970479E-1,-7.7638274E-1,5.3345855E-2,-1.6368859E-1,-2.9638696E-1,5.3598606E-3,9.167272E-2,1.7688262E-1,-1.3467579E-1,-2.1290803E-1,8.950185E-2,-1.2340153E-1,-1.8691035E-1,3.8300302E-2,1.1943975E-1,1.836612E-1,-7.111831E-2,8.591652E-3,2.720536E-1,1.3163015E-1,1.4560364E-1,4.2416256E-2,-9.328094E-2,1.731236E-1,-1.18025215E-2,-1.0458263E-1,6.615527E-2,1.9779901E-1,8.248878E-2,-1.864337E-1],"categories":[],"categories_nodes":[],"categories_segments":[],"categories_sizes":[],"default_left":[0,0,0,0,0,0,0,0,0,0,0,0,0,0,0,0,0,0,0,0,0,0,0,0,0,0,0,0,0,0,0,0,0,0,0,0,0,0,0,0,0,0,0,0,0,0,0,0,0,0,0,0,0,0,0,0,0,0,0,0,0,0,0,0,0,0,0,0,0,0,0,0,0,0,0,0,0,0,0,0,0,0,0,0,0,0,0,0,0,0,0,0,0,0,0,0,0,0,0],"id":13,"left_children":[1,3,5,7,9,11,13,15,17,19,21,23,25,27,-1,29,-1,31,33,35,37,39,41,43,-1,-1,-1,-1,-1,45,47,49,51,53,55,-1,57,-1,59,61,-1,63,65,67,69,71,73,75,-1,77,-1,-1,-1,79,81,-1,-1,83,-1,85,87,89,-1,-1,91,-1,-1,93,95,-1,97,-1,-1,-1,-1,-1,-1,-1,-1,-1,-1,-1,-1,-1,-1,-1,-1,-1,-1,-1,-1,-1,-1,-1,-1,-1,-1,-1,-1],"loss_changes":[2.1190675E2,6.6369934E1,9.971241E1,4.3750713E1,3.0290787E1,6.886981E1,8.473892E-1,1.1198231E1,3.2305202E1,5.8666786E1,2.0527496E0,1.10326065E2,9.426865E0,3.0319333E0,0E0,1.1385959E1,0E0,1.3197632E0,2.8006046E1,1.3491821E0,7.481127E0,5.582775E0,2.7853394E-1,6.748305E1,0E0,0E0,0E0,0E0,0E0,5.58932E0,1.2669907E0,2.4008217E0,4.7812462E-1,2.2922377E1,5.131584E0,0E0,3.400879E-1,0E0,7.678417E0,1.7673111E0,0E0,3.160553E-1,2.7554045E0,6.514787E1,4.216156E-1,3.6506722E0,4.283295E0,2.5691223E-1,0E0,4.2294788E-1,0E0,0E0,0E0,2.1126328E1,1.716815E0,0E0,0E0,6.589775E-1,0E0,5.4345837E0,3.9921618E-1,2.00175E0,0E0,0E0,2.3160875E0,0E0,0E0,6.4199E1,7.279804E0,0E0,3.975893E0,0E0,0E0,0E0,0E0,0E0,0E0,0E0,0E0,0E0,0E0,0E0,0E0,0E0,0E0,0E0,0E0,0E0,0E0,0E0,0E0,0E0,0E0,0E0,0E0,0E0,0E0,0E0,0E0],"parents":[2147483647,0,0,1,1,2,2,3,3,4,4,5,5,6,6,7,7,8,8,9,9,10,10,11,11,12,12,13,13,15,15,17,17,18,18,19,19,20,20,21,21,22,22,23,23,29,29,30,30,31,31,32,32,33,33,34,34,36,36,38,38,39,39,41,41,42,42,43,43,44,44,45,45,46,46,47,47,49,49,53,53,54,54,57,57,59,59,60,60,61,61,64,64,67,67,68,68,70,70],"right_children":[2,4,6,8,10,12,14,16,18,20,22,24,26,28,-1,30,-1,32,34,36,38,40,42,44,-1,-1,-1,-1,-1,46,48,50,52,54,56,-1,58,-1,60,62,-1,64,66,68,70,72,74,76,-1,78,-1,-1,-1,80,82,-1,-1,84,-1,86,88,90,-1,-1,92,-1,-1,94,96,-1,98,-1,-1,-1,-1,-1,-1,-1,-1,-1,-1,-1,-1,-1,-1,-1,-1,-1,-1,-1,-1,-1,-1,-1,-1,-1,-1,-1,-1],"split_conditions":[5E0,1E0,6.3E1,2E0,4E1,1E0,6.6E1,2.6923078E-1,3E0,1E0,4.5E1,2E0,2E0,2E0,1.8283708E-1,1E0,1.9544923E-1,3.2E1,1E0,2E1,1E0,1E0,3E0,2E0,2.0494013E-1,2.3402934E-1,-1.8527864E-1,1.700114E-1,-1.1439264E-1,8.695652E-2,1.5151516E-1,3.1E1,5.4E1,1E0,6.2E1,1.1918364E-2,2.0833334E-2,1.7797199E-1,1E0,4.1666668E-2,-2.1464835E-1,2E0,9.9E1,4.3E1,5.6E1,2E0,3E1,2.5E1,-1.0618577E-2,9.756097E-2,5.1913433E-2,-2.1833962E-1,-6.419552E-2,1E0,5.1E1,-1.7495778E-1,1.4858198E-1,2.6E1,2.0161599E-1,3.2E1,3.4E1,4E0,1.8912452E-1,1.8704292E-1,6.2E1,-1.0975107E-1,1.7481804E-1,1E0,4.6E1,-1.8970479E-1,3E0,5.3345855E-2,-1.6368859E-1,-2.9638696E-1,5.3598606E-3,9.167272E-2,1.7688262E-1,-1.3467579E-1,-2.1290803E-1,8.950185E-2,-1.2340153E-1,-1.8691035E-1,3.8300302E-2,1.1943975E-1,1.836612E-1,-7.111831E-2,8.591652E-3,2.720536E-1,1.3163015E-1,1.4560364E-1,4.2416256E-2,-9.328094E-2,1.731236E-1,-1.18025215E-2,-1.0458263E-1,6.615527E-2,1.9779901E-1,8.248878E-2,-1.864337E-1],"split_indices":[19,2,0,19,0,15,0,14,19,3,0,3,3,16,0,7,0,0,16,0,9,15,16,16,0,0,0,0,0,14,14,0,0,15,0,0,14,0,13,14,0,15,0,0,0,16,0,0,0,14,0,0,0,17,0,0,0,0,0,0,0,19,0,0,0,0,0,2,0,0,16,0,0,0,0,0,0,0,0,0,0,0,0,0,0,0,0,0,0,0,0,0,0,0,0,0,0,0,0],"split_type":[0,0,0,0,0,0,0,0,0,0,0,0,0,0,0,0,0,0,0,0,0,0,0,0,0,0,0,0,0,0,0,0,0,0,0,0,0,0,0,0,0,0,0,0,0,0,0,0,0,0,0,0,0,0,0,0,0,0,0,0,0,0,0,0,0,0,0,0,0,0,0,0,0,0,0,0,0,0,0,0,0,0,0,0,0,0,0,0,0,0,0,0,0,0,0,0,0,0,0],"sum_hessian":[2.1592546E3,7.4518365E2,1.4140709E3,3.2001157E2,4.2517206E2,1.3496058E3,6.446507E1,1.1237467E2,2.076369E2,2.1493205E2,2.1024E2,1.2340613E3,1.15544586E2,5.2202296E0,5.9244846E1,8.081431E1,3.1560364E1,4.0285248E1,1.6735165E2,9.085221E1,1.2407984E2,5.2517197E1,1.5772281E2,1.1776216E3,5.6439693E1,1.3897879E0,1.141548E2,3.9130716E0,1.3071579E0,5.3063614E1,2.7750692E1,2.2180809E1,1.8104437E1,1.3949034E2,2.7861315E1,1.4477122E0,8.9404495E1,6.4616904E0,1.1761815E2,5.147971E1,1.0374892E0,1.5101869E2,6.7041235E0,1.0744979E3,1.031237E2,4.7563843E1,5.4997725E0,2.6518587E1,1.2321055E0,2.0445461E1,1.7353482E0,1.7026358E1,1.0780785E0,1.2480887E2,1.4681475E1,2.651755E1,1.3437659E0,3.874639E1,5.0658108E1,1.1244274E2,5.1754084E0,3.0756344E1,2.0723366E1,1.4512944E2,5.889249E0,1.0156115E0,5.688512E0,1.01720233E3,5.729554E1,9.243297E1,1.0690736E1,4.53688E1,2.195039E0,2.4712298E0,3.0285425E0,2.6040025E0,2.3914585E1,1.6054466E1,4.3909965E0,1.0821228E2,1.6596594E1,1.36620655E1,1.0194086E0,1.0132136E1,2.8614254E1,4.3765457E1,6.8677284E1,1.5766861E0,3.598722E0,2.2171175E1,8.585169E0,1.0057346E0,4.8835144E0,6.5054443E2,3.666579E2,2.1806908E1,3.548863E1,1.8872887E0,8.803447E0],"tree_param":{"num_deleted":"0","num_feature":"21","num_nodes":"99","size_leaf_vector":"1"}},{"base_weights":[8.238818E-3,-1.8306418E-1,4.4214058E-1,-2.3177548E-1,9.104128E-1,-1.243132E-1,7.645827E-1,1.8782641E-1,-2.6921764E-1,1.9260268E-1,4.3034282E-1,4.043207E-2,-8.287913E-1,1.0777367E0,5.758895E-1,-2.0789789E-1,-1.0014616E0,-1.7552815E-1,1.7986047E-1,4.565811E-1,-1.6003175E-1,-5.362048E-1,-1.9272171E-1,1.3179755E0,1.0385814E0,2.9229394E-1,9.5490396E-1,-2.639234E-1,2.014441E-1,2.246843E-1,-1.0365608E0,-4.4638115E-1,5.505614E-1,1.8075953E-1,-2.2952531E-1,-3.8672406E-3,-6.647222E-1,5.0419396E-1,1.4728758E0,1.388136E-1,1.8773046E-1,8.188311E-1,-3.0445885E-2,9.8723733E-1,4.2942023E-1,-1.01915665E-1,-6.057676E-1,-1.8600169E-1,-4.174252E-2,1.4342433E-1,-8.1708854E-1,3.7187114E-1,4.1350788E-1,-1.0401829E-1,-8.621529E-1,-1.7883857E-1,7.7941626E-1,-5.154146E-1,-1.7579986E-1,1.5270466E-1,9.588401E-3,2.0173204E-1,1.9715685E0,1.5016063E-1,-1.1214057E-1,3.133062E-1,9.0890944E-1,-2.1630922E-1,7.6687115E-1,7.0656604E-1,1.0105114E0,-2.2937427E-1,1.7238398E-1,1.6765524E-2,-1.3676362E-1,1.0724172E-1,-1.3628857E-1,-1.0672241E-2,-1.8118297E-1,-9.974312E-2,9.964785E-2,-7.932495E-2,3.9369788E-2,-1.8558405E-1,1.5185377E-1,2.165485E-1,3.9496314E-2,-1.273659E-1,-1.2401195E-3,4.3501225E-1,1.3208537E-1,-1.2878981E-1,9.592008E-2,2.1957761E-1,1.4449622E-1,-6.1432015E-2,1.5277521E-1,2.0132309E-1,-1.3251686E-1,1.5921283E-1,-7.828011E-2,1.8203117E-1,1.10987306E-1],"categories":[],"categories_nodes":[],"categories_segments":[],"categories_sizes":[],"default_left":[0,0,0,0,0,0,0,0,0,0,0,0,0,0,0,0,0,0,0,0,0,0,0,0,0,0,0,0,0,0,0,0,0,0,0,0,0,0,0,0,0,0,0,0,0,0,0,0,0,0,0,0,0,0,0,0,0,0,0,0,0,0,0,0,0,0,0,0,0,0,0,0,0,0,0,0,0,0,0,0,0,0,0,0,0,0,0,0,0,0,0,0,0,0,0,0,0,0,0,0,0,0,0],"id":14,"left_children":[1,3,5,7,9,11,13,-1,15,-1,17,19,21,23,25,27,29,-1,-1,31,33,35,-1,37,39,41,43,45,-1,-1,47,49,51,-1,53,55,57,59,61,63,-1,65,67,69,71,73,75,-1,-1,-1,77,-1,79,81,83,-1,85,87,-1,-1,-1,-1,89,-1,-1,91,93,95,97,99,101,-1,-1,-1,-1,-1,-1,-1,-1,-1,-1,-1,-1,-1,-1,-1,-1,-1,-1,-1,-1,-1,-1,-1,-1,-1,-1,-1,-1,-1,-1,-1,-1],"loss_changes":[1.6798894E2,7.48969E1,1.13142876E2,6.511403E1,4.867859E0,2.6123415E1,2.3074783E1,0E0,5.861962E1,0E0,1.4252882E1,1.5271168E1,2.9860382E0,8.4806824E-1,2.6452286E1,9.0969955E1,8.555237E0,0E0,0E0,5.146968E0,1.0221191E1,1.4193683E0,0E0,2.13245E0,2.2485046E0,2.4129171E1,1.625618E0,6.415514E1,0E0,0E0,8.703766E-1,2.9735327E0,1.1113064E1,0E0,9.257656E0,3.8029523E0,6.121049E-1,5.7273084E-1,1.7818565E0,1.9833829E0,0E0,2.3434753E0,1.3162437E1,3.6415863E-1,6.8750463E0,1.0344693E2,7.352425E1,0E0,0E0,0E0,7.020924E-1,0E0,7.3858595E0,1.1018103E1,6.4708157E0,0E0,5.59546E-1,1.2655532E0,0E0,0E0,0E0,0E0,2.746479E0,0E0,0E0,2.228448E0,1.0128441E0,1.0206373E1,9.698799E0,2.1124783E0,2.9595184E-1,0E0,0E0,0E0,0E0,0E0,0E0,0E0,0E0,0E0,0E0,0E0,0E0,0E0,0E0,0E0,0E0,0E0,0E0,0E0,0E0,0E0,0E0,0E0,0E0,0E0,0E0,0E0,0E0,0E0,0E0,0E0,0E0],"parents":[2147483647,0,0,1,1,2,2,3,3,4,4,5,5,6,6,8,8,10,10,11,11,12,12,13,13,14,14,15,15,16,16,19,19,20,20,21,21,23,23,24,24,25,25,26,26,27,27,30,30,31,31,32,32,34,34,35,35,36,36,37,37,38,38,39,39,41,41,42,42,43,43,44,44,45,45,46,46,50,50,52,52,53,53,54,54,56,56,57,57,62,62,65,65,66,66,67,67,68,68,69,69,70,70],"right_children":[2,4,6,8,10,12,14,-1,16,-1,18,20,22,24,26,28,30,-1,-1,32,34,36,-1,38,40,42,44,46,-1,-1,48,50,52,-1,54,56,58,60,62,64,-1,66,68,70,72,74,76,-1,-1,-1,78,-1,80,82,84,-1,86,88,-1,-1,-1,-1,90,-1,-1,92,94,96,98,100,102,-1,-1,-1,-1,-1,-1,-1,-1,-1,-1,-1,-1,-1,-1,-1,-1,-1,-1,-1,-1,-1,-1,-1,-1,-1,-1,-1,-1,-1,-1,-1,-1],"split_conditions":[1.8E1,5.6E1,1E0,1E0,3E0,1.1E1,1E0,1.8782641E-1,1E0,1.9260268E-1,6E1,1E0,1.5E1,2E1,4.8E1,2E0,2E0,-1.7552815E-1,1.7986047E-1,2.7E1,1E0,3.1E1,-1.9272171E-1,2.7E1,2.9E1,4E0,2E0,1E0,2.014441E-1,2.246843E-1,4.8E1,1E0,1.9E1,1.8075953E-1,1E0,2.8E1,1E0,1E0,6E0,1E0,1.8773046E-1,1.9E1,2.0833334E-2,5E1,5.6E1,1E0,1E0,-1.8600169E-1,-4.174252E-2,1.4342433E-1,5E0,3.7187114E-1,2.8E1,3.8E1,7E1,-1.7883857E-1,2.1E1,4.2E1,-1.7579986E-1,1.5270466E-1,9.588401E-3,2.0173204E-1,9E0,1.5016063E-1,-1.1214057E-1,1E0,3.6E1,1E0,1E0,2.0930232E-1,3E0,-2.2937427E-1,1.7238398E-1,1.6765524E-2,-1.3676362E-1,1.0724172E-1,-1.3628857E-1,-1.0672241E-2,-1.8118297E-1,-9.974312E-2,9.964785E-2,-7.932495E-2,3.9369788E-2,-1.8558405E-1,1.5185377E-1,2.165485E-1,3.9496314E-2,-1.273659E-1,-1.2401195E-3,4.3501225E-1,1.3208537E-1,-1.2878981E-1,9.592008E-2,2.1957761E-1,1.4449622E-1,-6.1432015E-2,1.5277521E-1,2.0132309E-1,-1.3251686E-1,1.5921283E-1,-7.828011E-2,1.8203117E-1,1.10987306E-1],"split_indices":[1,0,2,9,16,19,3,0,15,0,0,3,19,1,0,3,3,0,0,0,9,0,0,0,0,19,15,2,0,0,0,9,1,0,16,0,16,9,19,9,0,1,14,0,0,16,3,0,0,0,19,0,0,0,0,0,1,0,0,0,0,0,19,0,0,19,0,13,18,14,16,0,0,0,0,0,0,0,0,0,0,0,0,0,0,0,0,0,0,0,0,0,0,0,0,0,0,0,0,0,0,0,0],"split_type":[0,0,0,0,0,0,0,0,0,0,0,0,0,0,0,0,0,0,0,0,0,0,0,0,0,0,0,0,0,0,0,0,0,0,0,0,0,0,0,0,0,0,0,0,0,0,0,0,0,0,0,0,0,0,0,0,0,0,0,0,0,0,0,0,0,0,0,0,0,0,0,0,0,0,0,0,0,0,0,0,0,0,0,0,0,0,0,0,0,0,0,0,0,0,0,0,0,0,0,0,0,0,0],"sum_hessian":[2.0230153E3,1.4041625E3,6.188527E2,1.3445781E3,5.9584335E1,2.2457352E2,3.942792E2,3.7598473E1,1.3069797E3,4.3266087E1,1.6318247E1,1.8231244E2,4.226108E1,1.475447E2,2.467345E2,1.2064578E3,1.0052186E2,4.673403E0,1.1644844E1,5.910636E1,1.2320608E2,2.036752E1,2.1893562E1,1.8861063E1,1.2868362E2,1.4153493E2,1.0519957E2,1.1584729E3,4.7984905E1,1.3195653E0,9.920229E1,5.431399E0,5.367496E1,6.555065E0,1.1665101E2,4.0407662E0,1.6326754E1,3.2861893E0,1.5574874E1,2.8483393E0,1.2583529E2,5.355434E1,8.798059E1,9.877296E1,6.426612E0,7.863293E2,3.7214365E2,9.760082E1,1.6014701E0,1.1314846E0,4.299914E0,3.908665E0,4.9766296E1,9.772551E1,1.89255E1,1.7206681E0,2.3200982E0,1.19053955E1,4.4213576E0,1.6309263E0,1.655263E0,1.0089256E1,5.4856176E0,1.4650185E0,1.3833207E0,8.368576E0,4.5185764E1,7.158314E1,1.6397448E1,8.516638E0,9.0256325E1,1.4075855E0,5.0190263E0,6.081436E2,1.7818564E2,4.3953884E1,3.281898E2,1.0238711E0,3.276043E0,6.419514E0,4.3346783E1,4.7532875E1,5.019264E1,1.7233467E1,1.6920334E0,1.0297749E0,1.2903234E0,8.394652E0,3.510743E0,3.655646E0,1.8299716E0,1.3464148E0,7.0221615E0,8.985277E0,3.6200485E1,6.411524E1,7.467898E0,1.3269687E1,3.1277614E0,7.375538E0,1.1411002E0,8.605989E1,4.1964283E0],"tree_param":{"num_deleted":"0","num_feature":"21","num_nodes":"103","size_leaf_vector":"1"}},{"base_weights":[4.122181E-3,-1.6720024E-1,3.9988378E-1,1.8521702E-1,-2.0471679E-1,-1.18959345E-1,7.143352E-1,-1.1883687E-1,-7.0194787E-1,-2.7658504E-2,-1.8344884E-1,1.0480493E0,5.2956045E-1,2.0063005E-2,-4.3268436E-1,-8.0608535E-1,8.402534E-1,1.8747094E-1,-9.260165E-2,1.0681021E0,6.3630354E-1,2.6658908E-1,9.2586523E-1,7.206023E-2,-7.497477E-1,4.1392422E-1,-5.3409505E-1,-9.0365195E-1,-3.019909E-1,-7.1469325E-1,1.3449689E0,-1.8343515E-3,-7.8628975E-1,5.408183E-1,1.0796452E0,-2.2554752E-1,2.1323325E-1,7.616439E-1,-1.1351781E-2,9.5786804E-1,4.0886807E-1,1.1819007E-3,1.9013304E-1,-9.985587E-1,1.8259631E-1,5.0119072E-2,2.0817947E0,-5.720616E-1,1.7397982E-1,-6.496363E-1,-1.0055511E0,-8.383919E-2,-1.6033182E-1,-1.8155365E-1,-2.627459E-2,3.9497685E-1,1.9709481E-1,8.9745685E-2,-1.8010409E-1,-9.5782363E-1,1.5356104E-1,1.4800769E-1,2.5023121E-2,1.4171995E0,1.0308367E0,4.2082563E-2,-1.4465831E-1,2.6055798E-1,8.6544746E-1,1.0417976E0,-2.003596E-1,6.845353E-1,9.9543387E-1,-2.1332866E-1,1.691535E-1,3.4373146E-2,-7.249168E-2,-1.809663E-1,-3.102378E-2,1.66412E-1,-1.20955475E-1,7.6776E-2,4.3693733E-1,-8.257724E-2,-1.7370251E-1,-1.8345189E-1,8.101734E-3,-1.3584722E-4,-1.8246059E-1,7.203224E-2,-1.4844088E-1,-1.4320185E-2,1.578009E-1,-1.8374918E-1,5.6228176E-2,1.9471222E-1,3.3664873E-1,5.4255735E-2,1.856149E-1,4.4579767E-3,2.049267E-1,1.340281E-1,2.0203197E-1,5.7703685E-2,2.5424045E-1,-6.645441E-2,9.008909E-2,1.4647384E-1,-1.0196696E-1,1.8051973E-1,9.529433E-2],"categories":[],"categories_nodes":[],"categories_segments":[],"categories_sizes":[],"default_left":[0,0,0,0,0,0,0,0,0,0,0,0,0,0,0,0,0,0,0,0,0,0,0,0,0,0,0,0,0,0,0,0,0,0,0,0,0,0,0,0,0,0,0,0,0,0,0,0,0,0,0,0,0,0,0,0,0,0,0,0,0,0,0,0,0,0,0,0,0,0,0,0,0,0,0,0,0,0,0,0,0,0,0,0,0,0,0,0,0,0,0,0,0,0,0,0,0,0,0,0,0,0,0,0,0,0,0,0,0,0,0],"id":15,"left_children":[1,3,5,-1,7,9,11,13,15,17,-1,19,21,23,25,27,29,-1,31,33,35,37,39,41,43,45,47,49,51,53,55,57,59,61,63,65,-1,67,69,71,73,75,-1,77,-1,79,81,83,-1,85,87,89,-1,-1,-1,-1,-1,91,-1,93,-1,-1,-1,95,97,-1,-1,99,101,103,105,107,109,-1,-1,-1,-1,-1,-1,-1,-1,-1,-1,-1,-1,-1,-1,-1,-1,-1,-1,-1,-1,-1,-1,-1,-1,-1,-1,-1,-1,-1,-1,-1,-1,-1,-1,-1,-1,-1,-1],"loss_changes":[1.286784E2,6.0282726E1,9.357736E1,0E0,5.484022E1,1.8098444E1,2.1795898E1,4.7792778E1,3.0650513E1,1.39472275E1,0E0,7.7723694E-1,2.393528E1,3.0454784E1,2.8964268E1,8.617088E0,9.924802E0,0E0,1.1752381E1,5.005493E-1,3.459654E0,1.915456E1,1.3635712E0,5.050097E1,2.1719263E1,2.1924597E1,1.750917E1,3.5827713E0,3.8260612E0,5.0638366E-1,9.383755E-1,1.5395861E1,6.4493246E0,3.490693E-1,1.3538818E0,9.119116E-1,0E0,2.5136337E0,1.7903402E1,6.1413574E-1,5.763135E0,5.259828E1,0E0,6.890907E-1,0E0,1.9841166E1,3.6501617E0,1.254496E1,0E0,1.1686686E1,2.4503326E0,8.249718E0,0E0,0E0,0E0,0E0,0E0,2.0774399E1,0E0,2.099184E0,0E0,0E0,0E0,1.2875824E0,1.0550537E0,0E0,0E0,1.9172468E0,8.984413E-1,3.6548586E0,9.48842E0,2.2675567E0,5.4976654E-1,0E0,0E0,0E0,0E0,0E0,0E0,0E0,0E0,0E0,0E0,0E0,0E0,0E0,0E0,0E0,0E0,0E0,0E0,0E0,0E0,0E0,0E0,0E0,0E0,0E0,0E0,0E0,0E0,0E0,0E0,0E0,0E0,0E0,0E0,0E0,0E0,0E0,0E0],"parents":[2147483647,0,0,1,1,2,2,4,4,5,5,6,6,7,7,8,8,9,9,11,11,12,12,13,13,14,14,15,15,16,16,18,18,19,19,20,20,21,21,22,22,23,23,24,24,25,25,26,26,27,27,28,28,29,29,30,30,31,31,32,32,33,33,34,34,35,35,37,37,38,38,39,39,40,40,41,41,43,43,45,45,46,46,47,47,49,49,50,50,51,51,57,57,59,59,63,63,64,64,67,67,68,68,69,69,70,70,71,71,72,72],"right_children":[2,4,6,-1,8,10,12,14,16,18,-1,20,22,24,26,28,30,-1,32,34,36,38,40,42,44,46,48,50,52,54,56,58,60,62,64,66,-1,68,70,72,74,76,-1,78,-1,80,82,84,-1,86,88,90,-1,-1,-1,-1,-1,92,-1,94,-1,-1,-1,96,98,-1,-1,100,102,104,106,108,110,-1,-1,-1,-1,-1,-1,-1,-1,-1,-1,-1,-1,-1,-1,-1,-1,-1,-1,-1,-1,-1,-1,-1,-1,-1,-1,-1,-1,-1,-1,-1,-1,-1,-1,-1,-1,-1,-1],"split_conditions":[1.8E1,1E0,1E0,1.8521702E-1,6.896552E-2,1.5E1,1E0,1.2E1,4.6153846E-1,1E0,-1.8344884E-1,1.2E1,4.8E1,1E0,7E0,3.5E1,1.1E1,1.8747094E-1,1E0,2.7E1,2.0833334E-2,4E0,2E0,2E0,1E0,2.7E1,6E1,5E0,1E0,2.4E1,5.1111114E-1,1E0,7E1,1E0,2E1,2.1E1,2.1323325E-1,1.9E1,3.6E1,5.1E1,5.6E1,1E0,1.9013304E-1,4.8E1,1.8259631E-1,1.5E1,2.4E1,2.3E1,1.7397982E-1,1E0,6E0,2E0,-1.6033182E-1,-1.8155365E-1,-2.627459E-2,3.9497685E-1,1.9709481E-1,4.1E1,-1.8010409E-1,1E0,1.5356104E-1,1.4800769E-1,2.5023121E-2,6E0,2.9E1,4.2082563E-2,-1.4465831E-1,2.0833334E-2,3E0,1.9E1,2.0833334E-2,2.5E-1,3E0,-2.1332866E-1,1.691535E-1,3.4373146E-2,-7.249168E-2,-1.809663E-1,-3.102378E-2,1.66412E-1,-1.20955475E-1,7.6776E-2,4.3693733E-1,-8.257724E-2,-1.7370251E-1,-1.8345189E-1,8.101734E-3,-1.3584722E-4,-1.8246059E-1,7.203224E-2,-1.4844088E-1,-1.4320185E-2,1.578009E-1,-1.8374918E-1,5.6228176E-2,1.9471222E-1,3.3664873E-1,5.4255735E-2,1.856149E-1,4.4579767E-3,2.049267E-1,1.340281E-1,2.0203197E-1,5.7703685E-2,2.5424045E-1,-6.645441E-2,9.008909E-2,1.4647384E-1,-1.0196696E-1,1.8051973E-1,9.529433E-2],"split_indices":[1,9,2,0,14,19,3,19,14,9,0,19,0,15,1,0,1,0,16,0,14,19,15,3,12,19,0,19,15,0,14,15,0,9,1,1,0,1,0,0,0,2,0,0,0,19,0,19,0,2,1,16,0,0,0,0,0,0,0,13,0,0,0,19,0,0,0,14,19,1,14,14,16,0,0,0,0,0,0,0,0,0,0,0,0,0,0,0,0,0,0,0,0,0,0,0,0,0,0,0,0,0,0,0,0,0,0,0,0,0,0],"split_type":[0,0,0,0,0,0,0,0,0,0,0,0,0,0,0,0,0,0,0,0,0,0,0,0,0,0,0,0,0,0,0,0,0,0,0,0,0,0,0,0,0,0,0,0,0,0,0,0,0,0,0,0,0,0,0,0,0,0,0,0,0,0,0,0,0,0,0,0,0,0,0,0,0,0,0,0,0,0,0,0,0,0,0,0,0,0,0,0,0,0,0,0,0,0,0,0,0,0,0,0,0,0,0,0,0,0,0,0,0,0,0],"sum_hessian":[1.8970437E3,1.324085E3,5.7295874E2,3.9452232E1,1.2846327E3,2.1630402E2,3.5665472E2,1.095853E3,1.8877971E2,1.9705751E2,1.9246515E1,1.2644073E2,2.3021402E2,7.5990936E2,3.3594363E2,1.7701614E2,1.1763557E1,1.0789807E1,1.862677E2,1.1996527E2,6.4754543E0,1.387857E2,9.1428314E1,7.1216565E2,4.774371E1,3.5805237E1,3.001384E2,1.48047E2,2.896916E1,2.8420649E0,8.921493E0,1.6506715E2,2.1200544E1,2.9770546E0,1.1698821E2,2.6610408E0,3.8144135E0,4.9654408E1,8.9131294E1,8.577968E1,5.6486316E0,6.653975E2,4.6768124E1,4.2039112E1,5.7045946E0,2.9729239E1,6.075999E0,2.9304175E2,7.0966477E0,4.3224415E1,1.0482258E2,2.1595469E1,7.373692E0,1.6318187E0,1.2102462E0,1.1601508E0,7.761342E0,1.5172044E2,1.3346717E1,1.9357517E1,1.8430268E0,1.4671556E0,1.509899E0,1.3373458E1,1.0361476E2,1.6239512E0,1.0370895E0,8.760434E0,4.0893974E1,1.32897835E1,7.584151E1,1.1286824E1,7.449286E1,1.3060032E0,4.3426285E0,4.5281992E2,2.125776E2,4.086495E1,1.1741643E0,1.338263E1,1.634661E1,1.3013746E0,4.7746243E0,2.3298216E2,6.0059586E1,2.7704035E1,1.552038E1,2.3734586E0,1.0244912E2,1.3193823E1,8.401646E0,1.2536018E2,2.6360256E1,1.8309288E1,1.0482285E0,8.818741E0,4.5547166E0,2.366464E0,1.0124829E2,7.2587934E0,1.5016404E0,3.0250397E1,1.0643577E1,4.9539385E0,8.335845E0,6.101283E1,1.482868E1,1.0271225E1,1.0155993E0,7.056438E1,3.9284828E0],"tree_param":{"num_deleted":"0","num_feature":"21","num_nodes":"111","size_leaf_vector":"1"}},{"base_weights":[9.880727E-4,3.5034037E-1,-1.7042786E-1,1.9836661E-1,8.958542E-1,-7.3580414E-2,-5.248594E-1,3.1529E-1,-3.8556573E-1,1.9943494E-1,1.7468187E-1,1.8856691E-1,-1.0249902E-1,-5.7151484E-1,6.5530163E-1,2.622127E-1,2.074202E-1,-1.0275561E0,-1.7741081E-1,3.277014E-1,-1.3870713E-1,-3.0390674E-2,-5.569827E-1,-3.996175E-1,-7.991403E-1,1.2332613E0,-2.0905647E-1,1.812644E-1,2.0063792E-1,-8.055508E-1,-2.8763834E-1,1.5074198E-1,-8.672229E-1,4.56445E-1,-6.726074E-2,4.996779E-1,-9.930952E-2,-7.853308E-1,4.0056252E-1,-2.0446229E-1,-1.0114278E0,-1.7734797E-1,-4.6967134E-1,2.0554078E0,1.338131E-1,-1.267866E-1,1.6422291E-1,5.5865234E-1,9.847755E-2,-5.142481E-1,-9.329691E-1,3.3319563E-1,-2.1194248E-1,-1.6343449E-1,-4.679374E-2,3.3860433E-1,1.5751284E-1,7.704451E-1,-2.0549592E-1,4.051887E-1,-2.1835557E-1,-8.0064535E-1,7.626791E-2,9.4926125E-1,-3.2376775E-1,-1.9821411E-1,-4.945808E-2,-1.859041E-1,5.7244E-4,-6.5314436E-1,5.784364E-1,1.735924E-1,5.628689E-1,2.3570009E-1,-1.4710759E-1,-1.6924234E-1,1.17301084E-1,2.5046822E-2,-9.866249E-2,-4.258753E-2,-1.6847014E-1,-8.0608025E-2,-1.874535E-1,-1.5728576E-2,1.3792098E-1,-1.6260652E-2,9.27945E-2,1.14917465E-1,5.257168E-1,-1.5646586E-2,9.8847024E-2,-4.600651E-2,1.7994402E-1,-4.968013E-2,-1.4894085E-1,-5.1663388E-3,2.0506682E-1,8.923724E-2,-2.2978209E-1,3.5026178E-2,-1.214012E-1,9.354516E-2,-1.3278534E-1,1.4563581E-1,3.145291E-3],"categories":[],"categories_nodes":[],"categories_segments":[],"categories_sizes":[],"default_left":[0,0,0,0,0,0,0,0,0,0,0,0,0,0,0,0,0,0,0,0,0,0,0,0,0,0,0,0,0,0,0,0,0,0,0,0,0,0,0,0,0,0,0,0,0,0,0,0,0,0,0,0,0,0,0,0,0,0,0,0,0,0,0,0,0,0,0,0,0,0,0,0,0,0,0,0,0,0,0,0,0,0,0,0,0,0,0,0,0,0,0,0,0,0,0,0,0,0,0,0,0,0,0,0,0],"id":16,"left_children":[1,3,5,7,9,11,13,15,17,19,-1,-1,21,23,25,27,-1,29,31,33,-1,35,37,39,41,43,45,-1,47,49,-1,51,53,55,-1,57,59,61,63,65,67,-1,69,71,73,-1,-1,75,77,79,81,83,-1,-1,-1,85,-1,87,-1,89,91,93,-1,95,97,-1,99,-1,-1,101,103,-1,-1,-1,-1,-1,-1,-1,-1,-1,-1,-1,-1,-1,-1,-1,-1,-1,-1,-1,-1,-1,-1,-1,-1,-1,-1,-1,-1,-1,-1,-1,-1,-1,-1],"loss_changes":[1.0760918E2,4.8965256E1,4.136298E1,3.1667532E1,7.9046783E0,3.1181074E1,1.4389214E1,1.738134E1,1.0275841E1,2.001439E0,0E0,0E0,3.0277367E1,9.616364E0,5.108348E0,1.6947247E1,0E0,1.971365E0,1.339806E1,1.3089119E0,0E0,2.9170712E1,2.7787941E1,1.6951733E1,6.873932E0,5.370449E0,2.7619908E0,0E0,1.2311164E1,3.4867382E-1,0E0,1.0049984E1,5.272045E-1,4.7591186E-1,0E0,4.1608356E1,4.2465546E1,2.0405006E0,9.90839E0,1.535698E1,1.28339E0,0E0,8.06584E0,2.9094124E0,3.9117727E0,0E0,0E0,1.1868538E1,7.3857937E0,5.4286575E-1,3.7956333E-1,6.7377567E0,0E0,0E0,0E0,8.005545E-1,0E0,2.0529987E1,0E0,1.0153921E1,2.9035479E1,1.9652252E0,0E0,2.870615E0,9.024468E0,0E0,1.468539E1,0E0,0E0,4.127982E0,8.570223E-1,0E0,0E0,0E0,0E0,0E0,0E0,0E0,0E0,0E0,0E0,0E0,0E0,0E0,0E0,0E0,0E0,0E0,0E0,0E0,0E0,0E0,0E0,0E0,0E0,0E0,0E0,0E0,0E0,0E0,0E0,0E0,0E0,0E0,0E0],"parents":[2147483647,0,0,1,1,2,2,3,3,4,4,5,5,6,6,7,7,8,8,9,9,12,12,13,13,14,14,15,15,17,17,18,18,19,19,21,21,22,22,23,23,24,24,25,25,26,26,28,28,29,29,31,31,32,32,33,33,35,35,36,36,37,37,38,38,39,39,40,40,42,42,43,43,44,44,47,47,48,48,49,49,50,50,51,51,55,55,57,57,59,59,60,60,61,61,63,63,64,64,66,66,69,69,70,70],"right_children":[2,4,6,8,10,12,14,16,18,20,-1,-1,22,24,26,28,-1,30,32,34,-1,36,38,40,42,44,46,-1,48,50,-1,52,54,56,-1,58,60,62,64,66,68,-1,70,72,74,-1,-1,76,78,80,82,84,-1,-1,-1,86,-1,88,-1,90,92,94,-1,96,98,-1,100,-1,-1,102,104,-1,-1,-1,-1,-1,-1,-1,-1,-1,-1,-1,-1,-1,-1,-1,-1,-1,-1,-1,-1,-1,-1,-1,-1,-1,-1,-1,-1,-1,-1,-1,-1,-1,-1],"split_conditions":[5E0,2.4E1,1.5E1,1E0,1E0,1E0,1E0,1E0,3E0,1E0,1.7468187E-1,1.8856691E-1,6.9767445E-2,1.3E1,1.3E1,1E0,2.074202E-1,1.8E1,4E0,3.2258064E-2,-1.3870713E-1,8E0,1.8E1,1E0,1E0,2.3E1,1.8E1,1.812644E-1,1E0,1.2E1,-2.8763834E-1,1E0,2E0,1E0,-6.726074E-2,1E0,1E0,1E0,1E0,1E0,2E0,-1.7734797E-1,2E0,1.1E1,7E0,-1.267866E-1,1.6422291E-1,1E1,2E0,1E0,1E0,1E0,-2.1194248E-1,-1.6343449E-1,-4.679374E-2,3E0,1.5751284E-1,1E0,-2.0549592E-1,1.3E1,4E0,7E0,7.626791E-2,1E0,1.9444445E-1,-1.9821411E-1,1E0,-1.859041E-1,5.7244E-4,1E0,3E0,1.735924E-1,5.628689E-1,2.3570009E-1,-1.4710759E-1,-1.6924234E-1,1.17301084E-1,2.5046822E-2,-9.866249E-2,-4.258753E-2,-1.6847014E-1,-8.0608025E-2,-1.874535E-1,-1.5728576E-2,1.3792098E-1,-1.6260652E-2,9.27945E-2,1.14917465E-1,5.257168E-1,-1.5646586E-2,9.8847024E-2,-4.600651E-2,1.7994402E-1,-4.968013E-2,-1.4894085E-1,-5.1663388E-3,2.0506682E-1,8.923724E-2,-2.2978209E-1,3.5026178E-2,-1.214012E-1,9.354516E-2,-1.3278534E-1,1.4563581E-1,3.145291E-3],"split_indices":[19,1,19,18,2,9,13,13,19,18,0,0,14,1,1,9,0,1,19,14,0,1,1,2,2,19,1,0,3,1,0,17,3,11,0,2,3,13,7,3,16,0,3,1,1,0,0,1,16,2,3,2,0,0,0,19,0,7,0,1,3,1,0,2,14,0,16,0,0,17,3,0,0,0,0,0,0,0,0,0,0,0,0,0,0,0,0,0,0,0,0,0,0,0,0,0,0,0,0,0,0,0,0,0,0],"split_type":[0,0,0,0,0,0,0,0,0,0,0,0,0,0,0,0,0,0,0,0,0,0,0,0,0,0,0,0,0,0,0,0,0,0,0,0,0,0,0,0,0,0,0,0,0,0,0,0,0,0,0,0,0,0,0,0,0,0,0,0,0,0,0,0,0,0,0,0,0,0,0,0,0,0,0,0,0,0,0,0,0,0,0,0,0,0,0,0,0,0,0,0,0,0,0,0,0,0,0,0,0,0,0,0,0],"sum_hessian":[1.796151E3,5.9108484E2,1.2050662E3,4.627183E2,1.2836653E2,9.468278E2,2.5823834E2,3.8567566E2,7.704263E1,1.4695123E1,1.1367142E2,2.313749E1,9.2369037E2,2.4861461E2,9.623731E0,3.6360056E2,2.2075125E1,1.8481E1,5.8561634E1,1.3230545E1,1.464578E0,7.975715E2,1.2611888E2,1.4226988E2,1.06344734E2,5.6660933E0,3.9576373E0,2.6794159E1,3.368064E2,1.4134648E1,4.3463535E0,3.989338E1,1.8668257E1,1.131145E1,1.9190953E0,9.148202E1,7.060894E2,1.0189206E2,2.422682E1,1.082651E2,3.400478E1,6.5576546E1,4.0768192E1,3.0444226E0,2.6216707E0,2.8393703E0,1.1182673E0,7.437812E1,2.6242825E2,4.90968E0,9.224968E0,3.5393276E1,4.500101E0,1.6936316E1,1.7319405E0,9.44205E0,1.8693999E0,7.882405E1,1.2657972E1,1.3462299E2,5.7146643E2,1.0075796E2,1.1341015E0,1.3714754E1,1.0512066E1,1.5353962E1,9.291113E1,3.2804737E1,1.2000425E0,3.4822227E1,5.9459662E0,1.9300007E0,1.114422E0,1.102939E0,1.5187316E0,4.519146E0,6.985898E1,2.4664009E2,1.5788167E1,3.3913317E0,1.518348E0,2.2788446E0,6.9461236E0,1.8319712E1,1.7073565E1,2.8939714E0,6.548078E0,7.514084E1,3.6832118E0,3.1763456E1,1.0285953E2,5.533624E2,1.8104053E1,7.266298E0,9.349166E1,2.453539E0,1.1261215E1,5.7825637E0,4.7295017E0,6.70933E1,2.5817837E1,2.4719925E0,3.2350235E1,4.020975E0,1.9249909E0],"tree_param":{"num_deleted":"0","num_feature":"21","num_nodes":"105","size_leaf_vector":"1"}},{"base_weights":[1.4224293E-2,-5.1901422E-2,6.8354654E-1,1.8438378E-1,-8.45523E-2,-1.24632046E-1,8.8374627E-1,-3.6028437E-2,-8.04958E-1,-4.6538126E-1,2.5298592E-1,6.5243644E-1,1.7296919E-1,-1.04386546E-1,1.9177668E-1,-1.8222092E-1,1.819454E-1,-9.3258876E-1,2.37872E-2,4.1594845E-1,-4.9827164E-1,7.6631314E-1,-1.8020827E-2,-4.6748888E-2,-9.109101E-1,-5.6397345E-2,-1.3590727E0,-4.362534E-1,4.6671075E-1,3.0240777E-1,1.620758E-1,-2.0691673E-1,2.2951178E-2,1.580342E-1,3.0079746E-1,5.553936E-1,-2.390273E-1,-7.901042E-2,5.996511E-1,-9.429065E-1,1.4474836E-1,-1.5666225E0,-9.699465E-2,-1.1568081E-1,-1.1881947E-2,-6.257606E-3,1.3575058E-1,1.1476478E-1,1.2731588E-1,1.3445006E-1,-1.1925279E-2,1.4067358E-1,-2.224403E-2,3.5950175E-1,-1.5695391E-2,2.4500267E-1,6.722269E-2,-1.7463234E-1,-9.121046E-2,-3.2867995E-1,-1.3981484E-1,1.060678E-1,-2.2478804E-2,-4.704104E-2,7.843E-2],"categories":[],"categories_nodes":[],"categories_segments":[],"categories_sizes":[],"default_left":[0,0,0,0,0,0,0,0,0,0,0,0,0,0,0,0,0,0,0,0,0,0,0,0,0,0,0,0,0,0,0,0,0,0,0,0,0,0,0,0,0,0,0,0,0,0,0,0,0,0,0,0,0,0,0,0,0,0,0,0,0,0,0,0,0],"id":17,"left_children":[1,3,5,-1,7,9,11,13,15,17,19,21,-1,23,-1,-1,-1,25,27,29,31,33,35,37,39,-1,41,43,45,47,-1,-1,-1,-1,49,51,-1,53,55,57,-1,59,-1,-1,-1,-1,-1,61,-1,-1,63,-1,-1,-1,-1,-1,-1,-1,-1,-1,-1,-1,-1,-1,-1],"loss_changes":[7.625419E1,5.591664E1,2.5107628E1,0E0,5.32234E1,4.0487785E0,2.3751755E0,1.0904733E2,3.9544342E1,3.7775707E0,1.9197543E0,2.7845755E0,0E0,6.2519302E1,0E0,0E0,0E0,2.0415425E0,1.800891E0,5.995033E-1,1.2581198E0,1.7000275E0,4.6213245E0,2.6210316E1,5.262169E0,0E0,4.794941E-1,3.2902896E-1,6.8451446E-1,8.099699E-1,0E0,0E0,0E0,0E0,1.0297146E0,7.2645426E-1,0E0,2.3964905E1,1.0097403E1,1.3759842E0,0E0,2.3623943E-1,0E0,0E0,0E0,0E0,0E0,9.546462E-1,0E0,0E0,5.8144504E-1,0E0,0E0,0E0,0E0,0E0,0E0,0E0,0E0,0E0,0E0,0E0,0E0,0E0,0E0],"parents":[2147483647,0,0,1,1,2,2,4,4,5,5,6,6,7,7,8,8,9,9,10,10,11,11,13,13,17,17,18,18,19,19,20,20,21,21,22,22,23,23,24,24,26,26,27,27,28,28,29,29,34,34,35,35,37,37,38,38,39,39,41,41,47,47,50,50],"right_children":[2,4,6,-1,8,10,12,14,16,18,20,22,-1,24,-1,-1,-1,26,28,30,32,34,36,38,40,-1,42,44,46,48,-1,-1,-1,-1,50,52,-1,54,56,58,-1,60,-1,-1,-1,-1,-1,62,-1,-1,64,-1,-1,-1,-1,-1,-1,-1,-1,-1,-1,-1,-1,-1,-1],"split_conditions":[2.5E1,1E0,1E0,1.8438378E-1,1E0,1E0,2.8E1,2E0,1E0,1E0,2.0833334E-2,1E0,1.7296919E-1,2E0,1.9177668E-1,-1.8222092E-1,1.819454E-1,1E0,2.7E1,1E0,1.3513513E-1,1E0,1.875E-1,1E0,4E0,-5.6397345E-2,1E0,2.6E1,1E0,1E0,1.620758E-1,-2.0691673E-1,2.2951178E-2,1.580342E-1,1E0,1E0,-2.390273E-1,5E0,1.1E1,1E0,1.4474836E-1,2.9E1,-9.699465E-2,-1.1568081E-1,-1.1881947E-2,-6.257606E-3,1.3575058E-1,2.7E1,1.2731588E-1,1.3445006E-1,2E0,1.4067358E-1,-2.224403E-2,3.5950175E-1,-1.5695391E-2,2.4500267E-1,6.722269E-2,-1.7463234E-1,-9.121046E-2,-3.2867995E-1,-1.3981484E-1,1.060678E-1,-2.2478804E-2,-4.704104E-2,7.843E-2],"split_indices":[1,9,2,0,15,7,1,3,12,17,14,18,0,16,0,0,0,3,1,11,14,17,14,13,16,0,18,1,3,17,0,0,0,0,3,3,0,1,1,2,0,1,0,0,0,0,0,1,0,0,3,0,0,0,0,0,0,0,0,0,0,0,0,0,0],"split_type":[0,0,0,0,0,0,0,0,0,0,0,0,0,0,0,0,0,0,0,0,0,0,0,0,0,0,0,0,0,0,0,0,0,0,0,0,0,0,0,0,0,0,0,0,0,0,0,0,0,0,0,0,0,0,0,0,0,0,0,0,0,0,0,0,0],"sum_hessian":[1.7221736E3,1.5676619E3,1.5451175E2,4.5177982E1,1.5224839E3,3.0705652E1,1.238061E2,1.4267969E3,9.568692E1,1.6092705E1,1.4612948E1,3.6000393E1,8.78057E1,1.3448744E3,8.192257E1,8.547649E1,1.0210436E1,8.047511E0,8.045194E0,1.2153914E1,2.4590333E0,3.0725407E1,5.2749867E0,1.2555662E3,8.930822E1,3.5805256E0,4.466985E0,3.948969E0,4.0962243E0,1.0416431E1,1.7374835E0,1.0262045E0,1.4328287E0,2.3947311E1,6.7780957E0,3.8467891E0,1.4281977E0,1.1962123E3,5.935385E1,8.786067E1,1.447553E0,3.264133E0,1.2028524E0,2.299439E0,1.64953E0,1.6581309E0,2.4380937E0,7.524473E0,2.891958E0,2.523881E0,4.254215E0,2.802953E0,1.043836E0,4.9834647E0,1.1912288E3,1.2605758E1,4.6748093E1,7.960341E1,8.257258E0,1.9852753E0,1.2788577E0,2.312559E0,5.211914E0,2.8372548E0,1.4169599E0],"tree_param":{"num_deleted":"0","num_feature":"21","num_nodes":"65","size_leaf_vector":"1"}},{"base_weights":[1.517517E-2,-4.070946E-2,8.618421E-1,2.5672715E-3,-1.0119283E0,1.7713259E-1,2.2073248E-1,-1.19055204E-1,2.7333894E-1,-1.8205242E-1,-7.0839085E-2,-1.7948468E-1,1.7612112E-1,-8.7402874E-1,-7.375257E-2,1.2123495E0,1.3132094E-1,-9.3094826E-1,1.2100105E-1,3.2483268E-1,-2.0352474E-1,2.1276493E0,-4.4279557E-1,9.3094856E-1,1.97317E-2,-6.3024554E-3,-9.57408E-1,2.0313607E-1,-9.774866E-2,5.5874383E-1,-3.2567927E-1,2.059528E-1,-2.768677E-1,2.566353E0,1.5814278E0,-6.7017025E-1,1.7451803E-1,2.6344532E-1,8.2193774E-1,4.671531E-1,-1.5568039E-1,-1.5106428E-1,-2.0463867E-1,5.3038216E-1,9.156658E-2,-1.127441E-2,-1.6592011E-1,2.409129E-2,2.9800582E-1,-3.6724623E-2,-1.234367E-1,5.994055E-1,2.8755778E-1,1.0351643E-1,4.3298823E-1,2.7463201E-2,-1.479842E-1,1.6295232E-1,3.8111474E-2,9.504974E-2,-7.943139E-2,-9.170106E-3,-1.3420756E-1],"categories":[],"categories_nodes":[],"categories_segments":[],"categories_sizes":[],"default_left":[0,0,0,0,0,0,0,0,0,0,0,0,0,0,0,0,0,0,0,0,0,0,0,0,0,0,0,0,0,0,0,0,0,0,0,0,0,0,0,0,0,0,0,0,0,0,0,0,0,0,0,0,0,0,0,0,0,0,0,0,0,0,0],"id":18,"left_children":[1,3,5,7,9,-1,11,13,15,-1,-1,-1,-1,17,19,21,23,25,27,29,31,33,35,37,39,-1,41,-1,-1,43,45,47,49,51,53,55,-1,-1,57,59,61,-1,-1,-1,-1,-1,-1,-1,-1,-1,-1,-1,-1,-1,-1,-1,-1,-1,-1,-1,-1,-1,-1],"loss_changes":[7.8263145E1,6.522297E1,8.897972E0,4.8947987E1,4.2510223E-1,0E0,1.8034172E1,3.505384E1,6.137237E1,0E0,0E0,0E0,0E0,3.3311806E0,5.009755E1,9.198908E1,3.573903E1,1.2876663E0,2.6534498E0,3.6273575E1,2.1961485E1,7.7366943E0,7.3536453E0,2.4794922E0,2.7651707E1,0E0,7.1668243E-1,0E0,0E0,1.747787E1,1.0073479E1,1.1404154E1,1.8072948E1,1.3960968E1,1.52271E1,2.6376066E0,0E0,0E0,2.3825035E0,6.3368073E0,1.5802599E1,0E0,0E0,0E0,0E0,0E0,0E0,0E0,0E0,0E0,0E0,0E0,0E0,